{"learner":{"attributes":{"scikit_learn":"{\"_estimator_type\": \"regressor\"}"},"feature_names":["store_id","color","size","channel","category","subcategory","type","is_campaign","discount","dayofweek_sin","dayofweek_cos","month_sin","month_cos","week_sin","week_cos"],"feature_types":["int","int","int","int","int","int","int","int","float","float","float","float","float","float","float"],"gradient_booster":{"model":{"gbtree_model_param":{"num_parallel_tree":"1","num_trees":"100"},"iteration_indptr":[0,1,2,3,4,5,6,7,8,9,10,11,12,13,14,15,16,17,18,19,20,21,22,23,24,25,26,27,28,29,30,31,32,33,34,35,36,37,38,39,40,41,42,43,44,45,46,47,48,49,50,51,52,53,54,55,56,57,58,59,60,61,62,63,64,65,66,67,68,69,70,71,72,73,74,75,76,77,78,79,80,81,82,83,84,85,86,87,88,89,90,91,92,93,94,95,96,97,98,99,100],"tree_info":[0,0,0,0,0,0,0,0,0,0,0,0,0,0,0,0,0,0,0,0,0,0,0,0,0,0,0,0,0,0,0,0,0,0,0,0,0,0,0,0,0,0,0,0,0,0,0,0,0,0,0,0,0,0,0,0,0,0,0,0,0,0,0,0,0,0,0,0,0,0,0,0,0,0,0,0,0,0,0,0,0,0,0,0,0,0,0,0,0,0,0,0,0,0,0,0,0,0,0,0],"trees":[{"base_weights":[-3.6922043E-7,2.1760752E0,-8.7907726E-1,3.399671E0,4.0971065E-1,2.5138107E-1,-2.0169115E0,4.974395E0,1.695694E0,1.4359517E0,-7.959049E-1,1.9874939E0,-7.4900275E-1,-1.3785911E0,-3.3440115E0,5.5010614E0,4.1371684E0,3.5664437E0,9.154468E-1,4.0534673E0,1.0540327E0,9.682992E-2,-1.2426791E0,2.5295818E0,7.628531E-1,-1.2803668E-1,-1.4677362E0,-8.44928E-1,-2.0045717E0,-2.2660925E0,-3.759154E0,4.741836E0,7.2978053E0,1.0595031E0,4.348931E0,2.6635032E0,4.885743E0,6.471015E-1,3.4691143E0,4.734975E0,1.330403E0,2.6272728E0,5.2580035E-1,1.7469631E0,-2.3088785E-1,-7.2539675E-1,-2.0136893E0,1.5010319E0,2.780877E0,-8.149238E-1,1.4995834E0,-4.179022E-1,1.0090928E0,-2.367105E-1,-1.856524E0,-5.1738167E-1,-1.6110274E0,-2.280455E0,-1.1869632E0,-1.5317224E0,-2.6073413E0,-4.845246E0,-3.624867E0,3.3337948E-1,5.521824E-1,5.7515806E-1,8.761572E-1,3.9971587E-1,-2.3777972E-1,4.4799104E-1,-1.4559719E-2,4.5444986E-1,1.1786796E-1,3.159668E-1,8.1874317E-1,2.6811823E-1,5.2730083E-2,6.059503E-1,1.330289E-1,6.3447684E-1,2.6469633E-1,-8.598829E-2,3.6640027E-1,6.372203E-1,2.2438999E-1,3.2887656E-2,3.93035E-1,4.2829743E-1,3.541745E-2,-1.5159354E-1,5.682826E-2,-1.3916E-1,2.663603E-1,-5.602557E-1,-1.7943704E-1,3.6925945E-1,9.659084E-2,1.2503694E-1,3.041037E-1,-2.4574517E-1,-5.631541E-2,1.9968247E-1,-7.909786E-2,-2.6766544E-3,-6.1066587E-2,3.6635765E-1,4.0727492E-2,6.468353E-2,-1.5325615E-1,-2.1409117E-1,-1.3521384E-1,2.6834762E-2,-7.8047246E-2,-7.0144504E-2,-2.353174E-1,-2.5534528E-1,-1.6373236E-1,-5.031692E-2,-2.3031512E-1,-2.15408E-1,3.8586978E-2,-3.214924E-1,-1.7031436E-1,-5.1072973E-1,-3.102877E-1,-2.532571E-1,-3.8451642E-1],"categories":[],"categories_nodes":[],"categories_segments":[],"categories_sizes":[],"default_left":[0,0,0,0,0,0,0,0,0,0,0,0,0,0,0,0,0,0,0,0,0,0,0,0,0,0,0,0,0,0,0,0,0,0,0,0,0,0,0,0,0,0,0,0,0,0,0,0,0,0,0,0,0,0,0,0,0,0,0,0,0,0,0,0,0,0,0,0,0,0,0,0,0,0,0,0,0,0,0,0,0,0,0,0,0,0,0,0,0,0,0,0,0,0,0,0,0,0,0,0,0,0,0,0,0,0,0,0,0,0,0,0,0,0,0,0,0,0,0,0,0,0,0,0,0,0,0],"id":0,"left_children":[1,3,5,7,9,11,13,15,17,19,21,23,25,27,29,31,33,35,37,39,41,43,45,47,49,51,53,55,57,59,61,63,65,67,69,71,73,75,77,79,81,83,85,87,89,91,93,95,97,99,101,103,105,107,109,111,113,115,117,119,121,123,125,-1,-1,-1,-1,-1,-1,-1,-1,-1,-1,-1,-1,-1,-1,-1,-1,-1,-1,-1,-1,-1,-1,-1,-1,-1,-1,-1,-1,-1,-1,-1,-1,-1,-1,-1,-1,-1,-1,-1,-1,-1,-1,-1,-1,-1,-1,-1,-1,-1,-1,-1,-1,-1,-1,-1,-1,-1,-1,-1,-1,-1,-1,-1,-1],"loss_changes":[1.2571827E4,4.0856553E3,6.0215576E3,2.9888037E3,9.6001324E2,4.081183E3,1.97171E3,2.3298535E2,7.820254E2,4.1459314E2,1.4251009E2,5.6832837E2,6.6525885E2,5.251228E2,3.3023145E2,4.4693457E2,1.439878E2,1.7520435E2,2.5884097E2,9.205731E1,3.0360892E2,6.5296715E1,9.3460846E1,1.4961548E2,3.0925702E2,2.6444302E2,3.3027844E2,2.1321234E2,1.6082764E2,4.9384644E1,6.192383E1,2.5725342E2,1.8272803E2,1.7106607E2,1.2604346E2,2.627663E2,3.331648E2,8.2900955E1,1.9139316E2,1.24378845E2,6.448561E1,1.17786255E2,1.8374799E2,6.912562E1,1.0458564E2,3.2882455E2,6.472211E1,1.3599133E2,1.8612817E2,3.376687E1,2.077316E2,4.8162186E1,2.58903E2,1.9219691E2,7.2411865E1,1.24033585E2,1.7048547E2,9.080444E1,1.4004099E2,8.4371124E1,7.363446E1,1.0178223E1,1.0792969E2,0E0,0E0,0E0,0E0,0E0,0E0,0E0,0E0,0E0,0E0,0E0,0E0,0E0,0E0,0E0,0E0,0E0,0E0,0E0,0E0,0E0,0E0,0E0,0E0,0E0,0E0,0E0,0E0,0E0,0E0,0E0,0E0,0E0,0E0,0E0,0E0,0E0,0E0,0E0,0E0,0E0,0E0,0E0,0E0,0E0,0E0,0E0,0E0,0E0,0E0,0E0,0E0,0E0,0E0,0E0,0E0,0E0,0E0,0E0,0E0,0E0,0E0,0E0,0E0],"parents":[2147483647,0,0,1,1,2,2,3,3,4,4,5,5,6,6,7,7,8,8,9,9,10,10,11,11,12,12,13,13,14,14,15,15,16,16,17,17,18,18,19,19,20,20,21,21,22,22,23,23,24,24,25,25,26,26,27,27,28,28,29,29,30,30,31,31,32,32,33,33,34,34,35,35,36,36,37,37,38,38,39,39,40,40,41,41,42,42,43,43,44,44,45,45,46,46,47,47,48,48,49,49,50,50,51,51,52,52,53,53,54,54,55,55,56,56,57,57,58,58,59,59,60,60,61,61,62,62],"right_children":[2,4,6,8,10,12,14,16,18,20,22,24,26,28,30,32,34,36,38,40,42,44,46,48,50,52,54,56,58,60,62,64,66,68,70,72,74,76,78,80,82,84,86,88,90,92,94,96,98,100,102,104,106,108,110,112,114,116,118,120,122,124,126,-1,-1,-1,-1,-1,-1,-1,-1,-1,-1,-1,-1,-1,-1,-1,-1,-1,-1,-1,-1,-1,-1,-1,-1,-1,-1,-1,-1,-1,-1,-1,-1,-1,-1,-1,-1,-1,-1,-1,-1,-1,-1,-1,-1,-1,-1,-1,-1,-1,-1,-1,-1,-1,-1,-1,-1,-1,-1,-1,-1,-1,-1,-1,-1],"split_conditions":[-4.3388373E-1,3.546049E-1,1E0,1E0,1E0,-3.546049E-1,5.6806475E-1,-3.546049E-1,-8.2298386E-1,7E0,-3.546049E-1,4.6472317E-1,6.6312265E-1,-3.546049E-1,-2.4492937E-16,2E0,3E0,2E0,4.5E1,1E0,-2.4492937E-16,-8.85456E-1,3.1E1,1E0,1E0,9.749279E-1,-2.4492937E-16,5E-1,5E-1,1E0,-2.3931566E-1,1.8E1,-7.818315E-1,2E0,4.9E1,2.2E1,3.2E1,2E0,2E0,2E0,4E0,1.1E1,4E1,1.2E1,-7.485108E-1,2.7E1,3.3E1,9E0,7E0,1E0,9.749279E-1,1E0,1E0,3E1,7.818315E-1,1.2E1,2.2E1,3.6E1,2E0,1E0,7.818315E-1,1E0,-3.2162452E-16,3.3337948E-1,5.521824E-1,5.7515806E-1,8.761572E-1,3.9971587E-1,-2.3777972E-1,4.4799104E-1,-1.4559719E-2,4.5444986E-1,1.1786796E-1,3.159668E-1,8.1874317E-1,2.6811823E-1,5.2730083E-2,6.059503E-1,1.330289E-1,6.3447684E-1,2.6469633E-1,-8.598829E-2,3.6640027E-1,6.372203E-1,2.2438999E-1,3.2887656E-2,3.93035E-1,4.2829743E-1,3.541745E-2,-1.5159354E-1,5.682826E-2,-1.3916E-1,2.663603E-1,-5.602557E-1,-1.7943704E-1,3.6925945E-1,9.659084E-2,1.2503694E-1,3.041037E-1,-2.4574517E-1,-5.631541E-2,1.9968247E-1,-7.909786E-2,-2.6766544E-3,-6.1066587E-2,3.6635765E-1,4.0727492E-2,6.468353E-2,-1.5325615E-1,-2.1409117E-1,-1.3521384E-1,2.6834762E-2,-7.8047246E-2,-7.0144504E-2,-2.353174E-1,-2.5534528E-1,-1.6373236E-1,-5.031692E-2,-2.3031512E-1,-2.15408E-1,3.8586978E-2,-3.214924E-1,-1.7031436E-1,-5.1072973E-1,-3.102877E-1,-2.532571E-1,-3.8451642E-1],"split_indices":[9,14,3,3,3,14,14,14,14,0,13,13,14,14,11,1,0,1,0,12,11,13,0,6,2,9,11,11,12,2,13,0,9,2,0,0,0,0,6,2,0,0,8,0,13,0,0,0,0,6,9,2,6,0,9,0,0,0,2,10,9,10,13,0,0,0,0,0,0,0,0,0,0,0,0,0,0,0,0,0,0,0,0,0,0,0,0,0,0,0,0,0,0,0,0,0,0,0,0,0,0,0,0,0,0,0,0,0,0,0,0,0,0,0,0,0,0,0,0,0,0,0,0,0,0,0,0],"split_type":[0,0,0,0,0,0,0,0,0,0,0,0,0,0,0,0,0,0,0,0,0,0,0,0,0,0,0,0,0,0,0,0,0,0,0,0,0,0,0,0,0,0,0,0,0,0,0,0,0,0,0,0,0,0,0,0,0,0,0,0,0,0,0,0,0,0,0,0,0,0,0,0,0,0,0,0,0,0,0,0,0,0,0,0,0,0,0,0,0,0,0,0,0,0,0,0,0,0,0,0,0,0,0,0,0,0,0,0,0,0,0,0,0,0,0,0,0,0,0,0,0,0,0,0,0,0,0],"sum_hessian":[6.57E3,1.89E3,4.68E3,1.116E3,7.74E2,2.348E3,2.332E3,5.79E2,5.37E2,4.18E2,3.56E2,8.58E2,1.49E3,1.576E3,7.56E2,3.52E2,2.27E2,1.57E2,3.8E2,5.2E1,3.66E2,1.19E2,2.37E2,5.94E2,2.64E2,8E2,6.9E2,8.52E2,7.24E2,2.12E2,5.44E2,2.5E2,1.02E2,1.5E1,2.12E2,9.5E1,6.2E1,3.45E2,3.5E1,4.1E1,1.1E1,9.1E1,2.75E2,1.9E1,1E2,1.43E2,9.4E1,1.18E2,4.76E2,8.4E1,1.8E2,6.38E2,1.62E2,1.66E2,5.24E2,5.98E2,2.54E2,5.4E2,1.84E2,6.9E1,1.43E2,5.6E1,4.88E2,9.1E1,1.59E2,5.2E1,5E1,8E0,7E0,2.06E2,6E0,4.1E1,5.4E1,4.2E1,2E1,1.8E1,3.27E2,1.5E1,2E1,2.2E1,1.9E1,6E0,5E0,7E0,8.4E1,2.61E2,1.4E1,6E0,1.3E1,3.8E1,6.2E1,1.2E2,2.3E1,4E0,9E1,2.2E1,9.6E1,7E1,4.06E2,1E1,7.4E1,1.48E2,3.2E1,2.11E2,4.27E2,2.9E1,1.33E2,9.9E1,6.7E1,3.33E2,1.91E2,1.5E2,4.48E2,1.15E2,1.39E2,3.77E2,1.63E2,1.15E2,6.9E1,5.2E1,1.7E1,8.4E1,5.9E1,4.7E1,9E0,8.4E1,4.04E2],"tree_param":{"num_deleted":"0","num_feature":"15","num_nodes":"127","size_leaf_vector":"1"}},{"base_weights":[8.150268E-4,1.9626572E0,-7.9171747E-1,3.0648057E0,3.716087E-1,2.2650647E-1,-1.8165851E0,4.482011E0,1.5312672E0,1.2982448E0,-7.1699667E-1,1.789575E0,-6.7416584E-1,-1.2414019E0,-3.0124204E0,4.957576E0,3.7260623E0,3.2206035E0,8.2668346E-1,3.814177E0,9.7011846E-1,4.7254285E-1,-1.0087748E0,2.2781277E0,6.8588305E-1,-3.651005E-1,-1.864942E0,-7.608535E-1,-1.8050795E0,-2.042622E0,-3.3859153E0,4.2711806E0,6.582115E0,9.6367395E-1,3.9160724E0,2.4031143E0,4.41518E0,5.8331823E-1,3.14273E0,2.8697658E0,6.4082637E0,2.4813132E0,4.6472126E-1,2.6670005E0,-1.6288331E-1,-1.3815758E-1,-1.3623192E0,1.3548431E0,2.5036888E0,-7.3698515E-1,1.3502914E0,-5.796419E-1,4.8207137E-1,-2.2018778E0,-1.1860969E0,-4.657293E-1,-1.4511225E0,-2.0531843E0,-1.0697838E0,-2.4467173E0,-1.4949002E0,-4.375125E0,-3.2636845E0,3.0040386E-1,4.973092E-1,7.037397E-1,2.888827E-1,3.641856E-1,-2.16974E-1,4.0340835E-1,-1.3311741E-2,4.1008693E-1,1.0629542E-1,2.8510496E-1,7.4076766E-1,-3.929403E-3,9.582206E-2,5.491425E-1,1.2035946E-1,5.133833E-1,1.84108E-1,7.3342174E-1,2.722802E-1,7.80011E-1,2.0904712E-1,2.8823007E-2,3.563517E-1,-6.691456E-3,5.40928E-1,-1.5059122E-1,6.859601E-2,-1.9947125E-1,5.1235616E-2,-2.1988347E-1,-1.1880278E-1,3.3393893E-1,8.703132E-2,2.065996E-1,3.3660814E-1,-2.2340472E-1,-5.0758954E-2,1.7984827E-1,-7.1427785E-2,-7.2107986E-2,4.761386E-3,3.3094308E-1,7.7792476E-3,-1.9508682E-1,-3.0963355E-1,-3.162328E-1,-6.479863E-2,1.2104585E-2,-7.557605E-2,-6.1784983E-2,-2.1098688E-1,-2.298783E-1,-1.4745894E-1,-4.5328613E-2,-2.0761262E-1,-4.349372E-1,-2.1774223E-1,-1.1397251E-1,-3.2658297E-1,-4.6072075E-1,-2.8236184E-1,-2.2822936E-1,-3.4615967E-1],"categories":[],"categories_nodes":[],"categories_segments":[],"categories_sizes":[],"default_left":[0,0,0,0,0,0,0,0,0,0,0,0,0,0,0,0,0,0,0,0,0,0,0,0,0,0,0,0,0,0,0,0,0,0,0,0,0,0,0,0,0,0,0,0,0,0,0,0,0,0,0,0,0,0,0,0,0,0,0,0,0,0,0,0,0,0,0,0,0,0,0,0,0,0,0,0,0,0,0,0,0,0,0,0,0,0,0,0,0,0,0,0,0,0,0,0,0,0,0,0,0,0,0,0,0,0,0,0,0,0,0,0,0,0,0,0,0,0,0,0,0,0,0,0,0,0,0],"id":1,"left_children":[1,3,5,7,9,11,13,15,17,19,21,23,25,27,29,31,33,35,37,39,41,43,45,47,49,51,53,55,57,59,61,63,65,67,69,71,73,75,77,79,81,83,85,87,89,91,93,95,97,99,101,103,105,107,109,111,113,115,117,119,121,123,125,-1,-1,-1,-1,-1,-1,-1,-1,-1,-1,-1,-1,-1,-1,-1,-1,-1,-1,-1,-1,-1,-1,-1,-1,-1,-1,-1,-1,-1,-1,-1,-1,-1,-1,-1,-1,-1,-1,-1,-1,-1,-1,-1,-1,-1,-1,-1,-1,-1,-1,-1,-1,-1,-1,-1,-1,-1,-1,-1,-1,-1,-1,-1,-1],"loss_changes":[1.0218301E4,3.3148652E3,4.885244E3,2.4207568E3,7.8270514E2,3.308158E3,1.600956E3,1.9004004E2,6.377075E2,3.4220258E2,1.2438481E2,4.6162036E2,5.4804834E2,4.2579517E2,2.672798E2,3.655078E2,1.15899414E2,1.4368518E2,2.1291559E2,9.920422E1,2.8296323E2,9.943793E1,8.815091E1,1.2052075E2,2.51517E2,2.1565721E2,6.7607666E1,1.7309314E2,1.3006567E2,4.3486023E1,5.1618164E1,2.0830518E2,1.5286377E2,1.4217152E2,1.023186E2,2.1406622E2,2.7376172E2,8.080055E1,1.5735025E2,7.672174E1,2.098117E1,1.7702332E2,1.5210773E2,1.2031649E2,6.487418E1,1.0247002E2,2.7130432E1,1.1152075E2,1.7309546E2,2.8056675E1,1.6876785E2,8.3961334E1,2.7407257E2,3.9760986E1,1.0854765E2,1.0203117E2,1.386698E2,7.348755E1,1.1383432E2,5.252704E1,5.4773956E1,7.515381E0,8.7078125E1,0E0,0E0,0E0,0E0,0E0,0E0,0E0,0E0,0E0,0E0,0E0,0E0,0E0,0E0,0E0,0E0,0E0,0E0,0E0,0E0,0E0,0E0,0E0,0E0,0E0,0E0,0E0,0E0,0E0,0E0,0E0,0E0,0E0,0E0,0E0,0E0,0E0,0E0,0E0,0E0,0E0,0E0,0E0,0E0,0E0,0E0,0E0,0E0,0E0,0E0,0E0,0E0,0E0,0E0,0E0,0E0,0E0,0E0,0E0,0E0,0E0,0E0,0E0,0E0],"parents":[2147483647,0,0,1,1,2,2,3,3,4,4,5,5,6,6,7,7,8,8,9,9,10,10,11,11,12,12,13,13,14,14,15,15,16,16,17,17,18,18,19,19,20,20,21,21,22,22,23,23,24,24,25,25,26,26,27,27,28,28,29,29,30,30,31,31,32,32,33,33,34,34,35,35,36,36,37,37,38,38,39,39,40,40,41,41,42,42,43,43,44,44,45,45,46,46,47,47,48,48,49,49,50,50,51,51,52,52,53,53,54,54,55,55,56,56,57,57,58,58,59,59,60,60,61,61,62,62],"right_children":[2,4,6,8,10,12,14,16,18,20,22,24,26,28,30,32,34,36,38,40,42,44,46,48,50,52,54,56,58,60,62,64,66,68,70,72,74,76,78,80,82,84,86,88,90,92,94,96,98,100,102,104,106,108,110,112,114,116,118,120,122,124,126,-1,-1,-1,-1,-1,-1,-1,-1,-1,-1,-1,-1,-1,-1,-1,-1,-1,-1,-1,-1,-1,-1,-1,-1,-1,-1,-1,-1,-1,-1,-1,-1,-1,-1,-1,-1,-1,-1,-1,-1,-1,-1,-1,-1,-1,-1,-1,-1,-1,-1,-1,-1,-1,-1,-1,-1,-1,-1,-1,-1,-1,-1,-1,-1],"split_conditions":[-4.3388373E-1,3.546049E-1,1E0,1E0,1E0,-3.546049E-1,5.6806475E-1,-3.546049E-1,-8.2298386E-1,6E0,5.6806475E-1,4.6472317E-1,9.350162E-1,-3.546049E-1,-2.4492937E-16,2E0,3E0,2E0,4.5E1,5E0,-2.4492937E-16,1.2E1,-3.546049E-1,1E0,1E0,9.749279E-1,2E0,5E-1,5E-1,6.234898E-1,-2.3931566E-1,1.8E1,-4.6472317E-1,2E0,4.9E1,2.2E1,3.2E1,1.6E1,2E0,6.6312265E-1,1E0,1E1,4E1,-7.818315E-1,2.7E1,-7.485108E-1,1E0,9E0,2E0,1E0,9.749279E-1,9.7094184E-1,1E0,1E0,0E0,1.5E1,2.1E1,3.6E1,2E0,6E0,4.3E1,1E0,-3.2162452E-16,3.0040386E-1,4.973092E-1,7.037397E-1,2.888827E-1,3.641856E-1,-2.16974E-1,4.0340835E-1,-1.3311741E-2,4.1008693E-1,1.0629542E-1,2.8510496E-1,7.4076766E-1,-3.929403E-3,9.582206E-2,5.491425E-1,1.2035946E-1,5.133833E-1,1.84108E-1,7.3342174E-1,2.722802E-1,7.80011E-1,2.0904712E-1,2.8823007E-2,3.563517E-1,-6.691456E-3,5.40928E-1,-1.5059122E-1,6.859601E-2,-1.9947125E-1,5.1235616E-2,-2.1988347E-1,-1.1880278E-1,3.3393893E-1,8.703132E-2,2.065996E-1,3.3660814E-1,-2.2340472E-1,-5.0758954E-2,1.7984827E-1,-7.1427785E-2,-7.2107986E-2,4.761386E-3,3.3094308E-1,7.7792476E-3,-1.9508682E-1,-3.0963355E-1,-3.162328E-1,-6.479863E-2,1.2104585E-2,-7.557605E-2,-6.1784983E-2,-2.1098688E-1,-2.298783E-1,-1.4745894E-1,-4.5328613E-2,-2.0761262E-1,-4.349372E-1,-2.1774223E-1,-1.1397251E-1,-3.2658297E-1,-4.6072075E-1,-2.8236184E-1,-2.2822936E-1,-3.4615967E-1],"split_indices":[9,14,3,3,3,14,14,14,14,0,14,13,14,14,11,1,0,1,0,0,11,0,13,6,2,9,1,11,12,10,13,0,14,2,0,0,0,0,6,14,12,0,8,9,0,13,6,0,2,6,9,13,6,10,9,0,0,0,2,0,0,10,13,0,0,0,0,0,0,0,0,0,0,0,0,0,0,0,0,0,0,0,0,0,0,0,0,0,0,0,0,0,0,0,0,0,0,0,0,0,0,0,0,0,0,0,0,0,0,0,0,0,0,0,0,0,0,0,0,0,0,0,0,0,0,0,0],"split_type":[0,0,0,0,0,0,0,0,0,0,0,0,0,0,0,0,0,0,0,0,0,0,0,0,0,0,0,0,0,0,0,0,0,0,0,0,0,0,0,0,0,0,0,0,0,0,0,0,0,0,0,0,0,0,0,0,0,0,0,0,0,0,0,0,0,0,0,0,0,0,0,0,0,0,0,0,0,0,0,0,0,0,0,0,0,0,0,0,0,0,0,0,0,0,0,0,0,0,0,0,0,0,0,0,0,0,0,0,0,0,0,0,0,0,0,0,0,0,0,0,0,0,0,0,0,0,0],"sum_hessian":[6.57E3,1.89E3,4.68E3,1.116E3,7.74E2,2.348E3,2.332E3,5.79E2,5.37E2,4.18E2,3.56E2,8.58E2,1.49E3,1.576E3,7.56E2,3.52E2,2.27E2,1.57E2,3.8E2,4.7E1,3.71E2,7E1,2.86E2,5.94E2,2.64E2,1.184E3,3.06E2,8.52E2,7.24E2,2.12E2,5.44E2,2.5E2,1.02E2,1.5E1,2.12E2,9.5E1,6.2E1,3.45E2,3.5E1,3.6E1,1.1E1,9.2E1,2.79E2,1.5E1,5.5E1,8.3E1,2.03E2,1.18E2,4.76E2,8.4E1,1.8E2,9.45E2,2.39E2,2.03E2,1.03E2,5.98E2,2.54E2,5.4E2,1.84E2,1.2E2,9.2E1,5.6E1,4.88E2,9.1E1,1.59E2,9E1,1.2E1,8E0,7E0,2.06E2,6E0,4.1E1,5.4E1,4.2E1,2E1,1.3E2,2.15E2,1.5E1,2E1,1E1,2.6E1,8E0,3E0,5E0,8.7E1,2.65E2,1.4E1,8E0,7E0,2.1E1,3.4E1,2.1E1,6.2E1,3.3E1,1.7E2,2.2E1,9.6E1,3.18E2,1.58E2,1E1,7.4E1,1.48E2,3.2E1,7.71E2,1.74E2,2.9E1,2.1E2,1.61E2,4.2E1,2.1E1,8.2E1,1.98E2,4E2,1.13E2,1.41E2,3.77E2,1.63E2,1.15E2,6.9E1,1.3E1,1.07E2,7.8E1,1.4E1,4.7E1,9E0,8.4E1,4.04E2],"tree_param":{"num_deleted":"0","num_feature":"15","num_nodes":"127","size_leaf_vector":"1"}},{"base_weights":[1.4154657E-3,1.7704498E0,-7.132278E-1,2.7624714E0,3.383741E-1,2.0393427E-1,-1.6363742E0,4.037823E0,1.3824222E0,1.175765E0,-6.453939E-1,1.6115471E0,-6.071612E-1,-1.1178746E0,-2.7143629E0,4.922502E0,3.668177E0,2.9083042E0,7.460133E-1,3.4682426E0,8.7680084E-1,-9.457896E-2,-1.1865032E0,2.0089219E0,5.095603E-1,-8.734145E-2,-1.2088523E0,-6.851626E-1,-1.6254408E0,-1.8434926E0,-3.0497408E0,3.3110836E0,5.656761E0,2.7556334E0,4.072974E0,2.168182E0,3.9899461E0,5.2525175E-1,2.8470542E0,2.6016405E0,5.851246E0,2.2438166E0,4.1962484E-1,-1.5403665E0,2.4508557E-1,-1.4853538E0,-5.1555616E-1,2.2945888E0,1.4211416E0,-7.2227657E-1,1.0676786E0,-3.251479E-1,8.4545404E-1,-1.5959308E-1,-1.540314E0,-4.017967E-1,-1.2729495E0,-1.8485631E0,-9.6417284E-1,-1.1892492E0,-2.1487255E0,-3.9506488E0,-2.9384904E0,7.667993E-1,2.4063332E-1,3.555402E-1,6.6606593E-1,5.5932367E-1,2.3083098E-1,7.769429E-2,4.4592103E-1,3.7005463E-1,9.585913E-2,2.5725755E-1,6.702184E-1,2.430898E-1,4.1326236E-2,4.976603E-1,1.08896665E-1,1.3456738E-1,4.1659924E-1,1.5425305E-1,6.5587366E-1,7.1501005E-1,1.8837994E-1,2.595155E-2,3.230922E-1,7.3802434E-2,-2.1583946E-1,-2.3739507E-2,1.3579933E-1,-2.3908828E-1,-7.526474E-2,-1.7525628E-1,5.7846762E-2,1.1611809E-1,2.816096E-1,1.940427E-1,-8.9216456E-2,-1.2516323E-1,1.8214195E-3,1.521687E-1,-1.1914616E-1,-2.6089761E-2,-1.2807739E-1,-2.2710533E-1,1.2238902E-1,6.37409E-2,-1.329308E-1,-1.7793679E-1,-1.03935234E-1,-6.277022E-3,-9.204698E-2,-4.99276E-2,-1.8967156E-1,-2.0695126E-1,-1.3280295E-1,-4.0834874E-2,-1.871479E-1,-1.7379716E-1,4.9250275E-2,-2.6846507E-1,-1.3536863E-1,-3.1668445E-1,-4.424723E-1,-2.0567492E-1,-3.1162915E-1],"categories":[],"categories_nodes":[],"categories_segments":[],"categories_sizes":[],"default_left":[0,0,0,0,0,0,0,0,0,0,0,0,0,0,0,0,0,0,0,0,0,0,0,0,0,0,0,0,0,0,0,0,0,0,0,0,0,0,0,0,0,0,0,0,0,0,0,0,0,0,0,0,0,0,0,0,0,0,0,0,0,0,0,0,0,0,0,0,0,0,0,0,0,0,0,0,0,0,0,0,0,0,0,0,0,0,0,0,0,0,0,0,0,0,0,0,0,0,0,0,0,0,0,0,0,0,0,0,0,0,0,0,0,0,0,0,0,0,0,0,0,0,0,0,0,0,0],"id":2,"left_children":[1,3,5,7,9,11,13,15,17,19,21,23,25,27,29,31,33,35,37,39,41,43,45,47,49,51,53,55,57,59,61,63,65,67,69,71,73,75,77,79,81,83,85,87,89,91,93,95,97,99,101,103,105,107,109,111,113,115,117,119,121,123,125,-1,-1,-1,-1,-1,-1,-1,-1,-1,-1,-1,-1,-1,-1,-1,-1,-1,-1,-1,-1,-1,-1,-1,-1,-1,-1,-1,-1,-1,-1,-1,-1,-1,-1,-1,-1,-1,-1,-1,-1,-1,-1,-1,-1,-1,-1,-1,-1,-1,-1,-1,-1,-1,-1,-1,-1,-1,-1,-1,-1,-1,-1,-1,-1],"loss_changes":[8.308509E3,2.6855142E3,3.9636182E3,1.9603916E3,6.3920264E2,2.6828518E3,1.3009653E3,1.7161523E2,5.2027405E2,2.841286E2,1.0629201E2,3.751338E2,4.6623584E2,3.4524268E2,2.154751E2,1.8004736E2,1.4133643E2,1.1783557E2,1.7522342E2,8.390271E1,2.3154608E2,8.779026E1,3.5326553E1,1.0268994E2,1.582111E2,1.7795656E2,2.400766E2,1.4156314E2,1.0518677E2,3.997998E1,4.301465E1,1.9835358E2,2.1680762E2,1.5210162E2,3.5808057E2,1.7439197E2,2.2494568E2,7.283603E1,1.2936224E2,6.7090576E1,2.646347E1,1.508009E2,1.25193695E2,4.9468674E1,7.818105E1,8.04729E1,7.815274E1,2.4675708E2,2.527958E2,2.8245571E1,1.6386865E2,3.8899986E1,1.9502155E2,1.5653561E2,6.102307E1,1.0140415E2,1.3273074E2,5.94729E1,9.253175E1,6.5452995E1,5.772162E1,7.1677856E0,7.025342E1,0E0,0E0,0E0,0E0,0E0,0E0,0E0,0E0,0E0,0E0,0E0,0E0,0E0,0E0,0E0,0E0,0E0,0E0,0E0,0E0,0E0,0E0,0E0,0E0,0E0,0E0,0E0,0E0,0E0,0E0,0E0,0E0,0E0,0E0,0E0,0E0,0E0,0E0,0E0,0E0,0E0,0E0,0E0,0E0,0E0,0E0,0E0,0E0,0E0,0E0,0E0,0E0,0E0,0E0,0E0,0E0,0E0,0E0,0E0,0E0,0E0,0E0,0E0,0E0],"parents":[2147483647,0,0,1,1,2,2,3,3,4,4,5,5,6,6,7,7,8,8,9,9,10,10,11,11,12,12,13,13,14,14,15,15,16,16,17,17,18,18,19,19,20,20,21,21,22,22,23,23,24,24,25,25,26,26,27,27,28,28,29,29,30,30,31,31,32,32,33,33,34,34,35,35,36,36,37,37,38,38,39,39,40,40,41,41,42,42,43,43,44,44,45,45,46,46,47,47,48,48,49,49,50,50,51,51,52,52,53,53,54,54,55,55,56,56,57,57,58,58,59,59,60,60,61,61,62,62],"right_children":[2,4,6,8,10,12,14,16,18,20,22,24,26,28,30,32,34,36,38,40,42,44,46,48,50,52,54,56,58,60,62,64,66,68,70,72,74,76,78,80,82,84,86,88,90,92,94,96,98,100,102,104,106,108,110,112,114,116,118,120,122,124,126,-1,-1,-1,-1,-1,-1,-1,-1,-1,-1,-1,-1,-1,-1,-1,-1,-1,-1,-1,-1,-1,-1,-1,-1,-1,-1,-1,-1,-1,-1,-1,-1,-1,-1,-1,-1,-1,-1,-1,-1,-1,-1,-1,-1,-1,-1,-1,-1,-1,-1,-1,-1,-1,-1,-1,-1,-1,-1,-1,-1,-1,-1,-1,-1],"split_conditions":[-4.3388373E-1,3.546049E-1,1E0,1E0,1E0,-3.546049E-1,5.6806475E-1,-8.2298386E-1,-8.2298386E-1,6E0,8.2298386E-1,5.6806475E-1,6.6312265E-1,-3.546049E-1,-2.4492937E-16,1.4E1,1E0,2E0,4.5E1,5E0,-2.4492937E-16,2E0,2E0,2E0,1E0,9.749279E-1,-2.4492937E-16,4.6472317E-1,5E-1,1E0,-2.3931566E-1,-2.3931566E-1,1E0,5E0,5E0,2.2E1,3.2E1,2E0,2E0,1.2053668E-1,2E0,1E1,4E1,7.485108E-1,6.6312265E-1,2.3E1,-7.818315E-1,1E0,2.3931566E-1,7.818315E-1,9.749279E-1,4E1,-2.3931566E-1,3E1,2E0,6.234898E-1,2.1E1,3.6E1,2E0,1E0,7.818315E-1,4.3388373E-1,-3.2162452E-16,7.667993E-1,2.4063332E-1,3.555402E-1,6.6606593E-1,5.5932367E-1,2.3083098E-1,7.769429E-2,4.4592103E-1,3.7005463E-1,9.585913E-2,2.5725755E-1,6.702184E-1,2.430898E-1,4.1326236E-2,4.976603E-1,1.08896665E-1,1.3456738E-1,4.1659924E-1,1.5425305E-1,6.5587366E-1,7.1501005E-1,1.8837994E-1,2.595155E-2,3.230922E-1,7.3802434E-2,-2.1583946E-1,-2.3739507E-2,1.3579933E-1,-2.3908828E-1,-7.526474E-2,-1.7525628E-1,5.7846762E-2,1.1611809E-1,2.816096E-1,1.940427E-1,-8.9216456E-2,-1.2516323E-1,1.8214195E-3,1.521687E-1,-1.1914616E-1,-2.6089761E-2,-1.2807739E-1,-2.2710533E-1,1.2238902E-1,6.37409E-2,-1.329308E-1,-1.7793679E-1,-1.03935234E-1,-6.277022E-3,-9.204698E-2,-4.99276E-2,-1.8967156E-1,-2.0695126E-1,-1.3280295E-1,-4.0834874E-2,-1.871479E-1,-1.7379716E-1,4.9250275E-2,-2.6846507E-1,-1.3536863E-1,-3.1668445E-1,-4.424723E-1,-2.0567492E-1,-3.1162915E-1],"split_indices":[9,14,3,3,3,14,14,14,14,0,14,13,14,14,11,0,2,1,0,0,11,6,2,1,2,9,11,13,12,2,13,13,1,0,0,0,0,0,6,13,6,0,8,13,14,0,9,2,13,9,9,8,14,0,1,10,0,0,2,10,9,9,13,0,0,0,0,0,0,0,0,0,0,0,0,0,0,0,0,0,0,0,0,0,0,0,0,0,0,0,0,0,0,0,0,0,0,0,0,0,0,0,0,0,0,0,0,0,0,0,0,0,0,0,0,0,0,0,0,0,0,0,0,0,0,0,0],"split_type":[0,0,0,0,0,0,0,0,0,0,0,0,0,0,0,0,0,0,0,0,0,0,0,0,0,0,0,0,0,0,0,0,0,0,0,0,0,0,0,0,0,0,0,0,0,0,0,0,0,0,0,0,0,0,0,0,0,0,0,0,0,0,0,0,0,0,0,0,0,0,0,0,0,0,0,0,0,0,0,0,0,0,0,0,0,0,0,0,0,0,0,0,0,0,0,0,0,0,0,0,0,0,0,0,0,0,0,0,0,0,0,0,0,0,0,0,0,0,0,0,0,0,0,0,0,0,0],"sum_hessian":[6.57E3,1.89E3,4.68E3,1.116E3,7.74E2,2.348E3,2.332E3,5.79E2,5.37E2,4.18E2,3.56E2,8.58E2,1.49E3,1.576E3,7.56E2,1.67E2,4.12E2,1.57E2,3.8E2,4.7E1,3.71E2,1.77E2,1.79E2,6.3E2,2.28E2,8E2,6.9E2,8.52E2,7.24E2,2.12E2,5.44E2,5.4E1,1.13E2,1.29E2,2.83E2,9.5E1,6.2E1,3.45E2,3.5E1,3.6E1,1.1E1,9.2E1,2.79E2,3.3E1,1.44E2,1.23E2,5.6E1,4.22E2,2.08E2,7.1E1,1.57E2,6.38E2,1.62E2,1.66E2,5.24E2,5.76E2,2.76E2,5.4E2,1.84E2,6.9E1,1.43E2,5.6E1,4.88E2,8E0,4.6E1,3.8E1,7.5E1,1.6E1,1.13E2,3E1,2.53E2,4.1E1,5.4E1,4.2E1,2E1,1.8E1,3.27E2,1.5E1,2E1,2.1E1,1.5E1,2E0,9E0,5E0,8.7E1,2.65E2,1.4E1,7E0,2.6E1,1.01E2,4.3E1,5.4E1,6.9E1,2.6E1,3E1,1.34E2,2.88E2,1.7E2,3.8E1,4.1E1,3E1,1.31E2,2.6E1,5.99E2,3.9E1,1.7E1,1.45E2,9.9E1,6.7E1,3.53E2,1.71E2,3.49E2,2.27E2,1.24E2,1.52E2,3.77E2,1.63E2,1.15E2,6.9E1,5.2E1,1.7E1,8.4E1,5.9E1,2.4E1,3.2E1,8.4E1,4.04E2],"tree_param":{"num_deleted":"0","num_feature":"15","num_nodes":"127","size_leaf_vector":"1"}},{"base_weights":[2.0151625E-3,1.5975186E0,-6.425263E-1,2.491262E0,3.0731353E-1,1.834566E-1,-1.4738986E0,3.6398041E0,1.2484258E0,1.0644267E0,-5.8214784E-1,1.4508722E0,-5.4685426E-1,-1.0066615E0,-2.4453106E0,3.7786822E0,1.6704844E0,2.6262927E0,6.737502E-1,3.0363162E0,7.767575E-1,1.5590386E0,-7.071229E-1,1.848381E0,5.528774E-1,-7.893055E-2,-1.0884751E0,-3.742113E-1,-1.292259E0,-1.661624E0,-2.7471087E0,4.279067E0,3.0569017E0,7.853205E-1,3.4843946E-1,1.9562169E0,3.6056733E0,4.7354832E-1,2.5791976E0,4.070582E0,1.5102923E0,1.9330816E0,3.8850173E-1,3.7072523E0,3.7357187E-1,-3.9545795E-1,-1.2153587E0,1.3027602E0,2.174301E0,-6.17294E-1,1.0993509E0,-2.9287446E-1,7.6026636E-1,-1.4404799E-1,-1.3868197E0,7.8035945E-1,-6.346385E-1,-1.0770811E0,-1.7108852E0,-1.0721033E0,-1.9366575E0,-3.5689023E0,-2.645699E0,2.8197613E-1,4.9002144E-1,2.251334E-1,3.9725015E-1,3.510277E-1,-4.544642E-2,3.6935776E-1,8.988204E-2,2.3213008E-1,6.0638803E-1,-1.0412912E-2,8.217066E-2,4.5100465E-1,9.8525584E-2,-1.7871451E-1,4.7620222E-1,5.3011775E-2,7.868083E-1,1.3795833E-1,4.1319308E-1,2.415494E-2,2.9293692E-1,1.9492029E-1,4.5384884E-1,-5.2428555E-1,1.7465478E-1,-8.126157E-2,1.5882733E-1,-2.1401083E-2,-1.6847984E-1,1.16263844E-1,5.500464E-1,3.1537688E-1,1.6758E-1,-1.9633435E-1,-4.1164286E-2,1.7244938E-1,-7.043348E-3,5.8604777E-3,-4.662874E-2,2.8712097E-1,2.8199345E-2,5.7430573E-2,-1.1983321E-1,-1.997494E-1,-1.2106611E-1,1.5290052E-2,3.502657E-1,5.2546382E-2,-1.015416E-1,-7.220236E-2,-1.4380895E-1,-2.0536652E-1,-1.2069503E-1,4.5803445E-3,-1.7751098E-1,-2.419344E-1,-1.220574E-1,-2.8628275E-1,-3.995659E-1,-1.8534938E-1,-2.8054318E-1],"categories":[],"categories_nodes":[],"categories_segments":[],"categories_sizes":[],"default_left":[0,0,0,0,0,0,0,0,0,0,0,0,0,0,0,0,0,0,0,0,0,0,0,0,0,0,0,0,0,0,0,0,0,0,0,0,0,0,0,0,0,0,0,0,0,0,0,0,0,0,0,0,0,0,0,0,0,0,0,0,0,0,0,0,0,0,0,0,0,0,0,0,0,0,0,0,0,0,0,0,0,0,0,0,0,0,0,0,0,0,0,0,0,0,0,0,0,0,0,0,0,0,0,0,0,0,0,0,0,0,0,0,0,0,0,0,0,0,0,0,0,0,0,0,0],"id":3,"left_children":[1,3,5,7,9,11,13,15,17,19,21,23,25,27,29,31,33,35,37,39,41,43,45,47,49,51,53,55,57,59,61,63,65,-1,67,69,71,73,75,77,79,81,83,85,87,89,91,93,95,97,99,101,103,105,107,109,111,113,115,117,119,121,123,-1,-1,-1,-1,-1,-1,-1,-1,-1,-1,-1,-1,-1,-1,-1,-1,-1,-1,-1,-1,-1,-1,-1,-1,-1,-1,-1,-1,-1,-1,-1,-1,-1,-1,-1,-1,-1,-1,-1,-1,-1,-1,-1,-1,-1,-1,-1,-1,-1,-1,-1,-1,-1,-1,-1,-1,-1,-1,-1,-1,-1,-1],"loss_changes":[6.758433E3,2.17977E3,3.2147097E3,1.589917E3,5.225223E2,2.1750454E3,1.0564395E3,1.5231445E2,4.2423328E2,2.3532004E2,9.663384E1,3.056073E2,3.77789E2,2.8436377E2,1.7447754E2,1.8231152E2,3.24217E2,9.6635376E1,1.4412027E2,7.750284E1,1.6401349E2,4.9547794E1,5.305832E1,1.0297534E2,1.7013754E2,1.4403506E2,1.9449957E2,1.484306E2,9.5983154E1,3.2459106E1,3.597705E1,2.7352588E2,1.5701147E2,0E0,8.790941E1,1.7303973E2,1.8483093E2,6.967418E1,1.0635225E2,1.3406873E2,1.3915912E2,1.06269104E2,1.0234706E2,1.3830414E0,1.1711398E2,1.7589923E2,5.9808716E1,1.2594766E2,1.7586145E2,2.2721222E1,1.3248355E2,3.897504E1,1.6375629E2,1.2716549E2,5.405896E1,1.5490425E2,1.7811342E2,9.1250305E1,6.0916504E1,5.509401E1,4.6819702E1,5.73645E0,5.667871E1,0E0,0E0,0E0,0E0,0E0,0E0,0E0,0E0,0E0,0E0,0E0,0E0,0E0,0E0,0E0,0E0,0E0,0E0,0E0,0E0,0E0,0E0,0E0,0E0,0E0,0E0,0E0,0E0,0E0,0E0,0E0,0E0,0E0,0E0,0E0,0E0,0E0,0E0,0E0,0E0,0E0,0E0,0E0,0E0,0E0,0E0,0E0,0E0,0E0,0E0,0E0,0E0,0E0,0E0,0E0,0E0,0E0,0E0,0E0,0E0,0E0,0E0],"parents":[2147483647,0,0,1,1,2,2,3,3,4,4,5,5,6,6,7,7,8,8,9,9,10,10,11,11,12,12,13,13,14,14,15,15,16,16,17,17,18,18,19,19,20,20,21,21,22,22,23,23,24,24,25,25,26,26,27,27,28,28,29,29,30,30,31,31,32,32,34,34,35,35,36,36,37,37,38,38,39,39,40,40,41,41,42,42,43,43,44,44,45,45,46,46,47,47,48,48,49,49,50,50,51,51,52,52,53,53,54,54,55,55,56,56,57,57,58,58,59,59,60,60,61,61,62,62],"right_children":[2,4,6,8,10,12,14,16,18,20,22,24,26,28,30,32,34,36,38,40,42,44,46,48,50,52,54,56,58,60,62,64,66,-1,68,70,72,74,76,78,80,82,84,86,88,90,92,94,96,98,100,102,104,106,108,110,112,114,116,118,120,122,124,-1,-1,-1,-1,-1,-1,-1,-1,-1,-1,-1,-1,-1,-1,-1,-1,-1,-1,-1,-1,-1,-1,-1,-1,-1,-1,-1,-1,-1,-1,-1,-1,-1,-1,-1,-1,-1,-1,-1,-1,-1,-1,-1,-1,-1,-1,-1,-1,-1,-1,-1,-1,-1,-1,-1,-1,-1,-1,-1,-1,-1,-1],"split_conditions":[-4.3388373E-1,3.546049E-1,1E0,1E0,1E0,-3.546049E-1,5.6806475E-1,4.7E1,-8.2298386E-1,7E0,-8.85456E-1,4.6472317E-1,6.6312265E-1,-7.485108E-1,-2.4492937E-16,3.546049E-1,1E0,2E0,4.5E1,2E0,-2.4492937E-16,1.2E1,3.2E1,2E0,1E0,9.749279E-1,-2.4492937E-16,1E0,2E0,1E0,-2.3931566E-1,1E0,-7.818315E-1,7.853205E-1,1E0,-9.7094184E-1,3.2E1,1.6E1,2E0,1E0,9.350162E-1,4.1E1,4E1,-7.818315E-1,1.8E1,2.7E1,-2.3931566E-1,2.3931566E-1,1E0,1E0,2E0,1E0,1E0,3E1,0E0,3.9E1,1.2E1,-5E-1,7.818315E-1,4.3388373E-1,7.818315E-1,4.3388373E-1,-3.2162452E-16,2.8197613E-1,4.9002144E-1,2.251334E-1,3.9725015E-1,3.510277E-1,-4.544642E-2,3.6935776E-1,8.988204E-2,2.3213008E-1,6.0638803E-1,-1.0412912E-2,8.217066E-2,4.5100465E-1,9.8525584E-2,-1.7871451E-1,4.7620222E-1,5.3011775E-2,7.868083E-1,1.3795833E-1,4.1319308E-1,2.415494E-2,2.9293692E-1,1.9492029E-1,4.5384884E-1,-5.2428555E-1,1.7465478E-1,-8.126157E-2,1.5882733E-1,-2.1401083E-2,-1.6847984E-1,1.16263844E-1,5.500464E-1,3.1537688E-1,1.6758E-1,-1.9633435E-1,-4.1164286E-2,1.7244938E-1,-7.043348E-3,5.8604777E-3,-4.662874E-2,2.8712097E-1,2.8199345E-2,5.7430573E-2,-1.1983321E-1,-1.997494E-1,-1.2106611E-1,1.5290052E-2,3.502657E-1,5.2546382E-2,-1.015416E-1,-7.220236E-2,-1.4380895E-1,-2.0536652E-1,-1.2069503E-1,4.5803445E-3,-1.7751098E-1,-2.419344E-1,-1.220574E-1,-2.8628275E-1,-3.995659E-1,-1.8534938E-1,-2.8054318E-1],"split_indices":[9,14,3,3,3,14,14,0,14,0,13,13,14,14,11,13,6,1,0,2,11,0,0,6,2,9,11,6,2,2,13,2,9,0,1,14,0,0,6,0,13,0,8,9,0,0,13,13,1,6,1,2,6,0,9,0,0,11,9,9,9,9,13,0,0,0,0,0,0,0,0,0,0,0,0,0,0,0,0,0,0,0,0,0,0,0,0,0,0,0,0,0,0,0,0,0,0,0,0,0,0,0,0,0,0,0,0,0,0,0,0,0,0,0,0,0,0,0,0,0,0,0,0,0,0],"split_type":[0,0,0,0,0,0,0,0,0,0,0,0,0,0,0,0,0,0,0,0,0,0,0,0,0,0,0,0,0,0,0,0,0,0,0,0,0,0,0,0,0,0,0,0,0,0,0,0,0,0,0,0,0,0,0,0,0,0,0,0,0,0,0,0,0,0,0,0,0,0,0,0,0,0,0,0,0,0,0,0,0,0,0,0,0,0,0,0,0,0,0,0,0,0,0,0,0,0,0,0,0,0,0,0,0,0,0,0,0,0,0,0,0,0,0,0,0,0,0,0,0,0,0,0,0],"sum_hessian":[6.57E3,1.89E3,4.68E3,1.116E3,7.74E2,2.348E3,2.332E3,5.79E2,5.37E2,4.18E2,3.56E2,8.58E2,1.49E3,1.576E3,7.56E2,5.4E2,3.9E1,1.57E2,3.8E2,5.2E1,3.66E2,1.9E1,3.37E2,5.94E2,2.64E2,8E2,6.9E2,4.91E2,1.085E3,2.12E2,5.44E2,3.16E2,2.24E2,6E0,3.3E1,9.5E1,6.2E1,3.45E2,3.5E1,3E1,2.2E1,9.1E1,2.75E2,6E0,1.3E1,2.1E2,1.27E2,2.24E2,3.7E2,8.4E1,1.8E2,6.38E2,1.62E2,1.66E2,5.24E2,9E1,4.01E2,7.19E2,3.66E2,6.9E1,1.43E2,5.6E1,4.88E2,9.6E1,2.2E2,1.21E2,1.03E2,6E0,2.7E1,3.5E1,6E1,4.2E1,2E1,1.3E2,2.15E2,1.5E1,2E1,3E0,2.7E1,2E1,2E0,7.4E1,1.7E1,2.61E2,1.4E1,3E0,3E0,2E0,1.1E1,1.74E2,3.6E1,4.1E1,8.6E1,2.18E2,6E0,1.23E2,2.47E2,1E1,7.4E1,1.17E2,6.3E1,2.11E2,4.27E2,2.9E1,1.33E2,9.9E1,6.7E1,1.15E2,4.09E2,7.4E1,1.6E1,9.9E1,3.02E2,3.64E2,3.55E2,2.16E2,1.5E2,2.7E1,4.2E1,8.4E1,5.9E1,2.4E1,3.2E1,8.4E1,4.04E2],"tree_param":{"num_deleted":"0","num_feature":"15","num_nodes":"125","size_leaf_vector":"1"}},{"base_weights":[2.6737372E-3,1.4412552E0,-5.7847565E-1,2.2460787E0,2.7941114E-1,1.6552335E-1,-1.3273292E0,3.280109E0,1.1271503E0,9.627706E-1,-5.2340966E-1,1.3070391E0,-4.9224165E-1,-9.061383E-1,-2.2030103E0,4.0621295E0,2.9540567E0,2.210475E0,5.196104E-1,2.879001E0,7.12927E-1,4.6012822E-1,-7.649002E-1,1.6326238E0,4.0419656E-1,-2.586616E-1,-1.392242E0,-5.419056E-1,-1.3334271E0,-1.4979823E0,-2.4745111E0,2.6256993E0,4.719511E0,3.5831056E0,2.4764655E0,3.1893325E0,1.6016562E0,3.4022447E-1,2.269203E0,2.1009166E0,5.038177E0,1.8387249E0,3.3645514E-1,2.3800116E0,-9.662647E-2,-1.8630786E0,-5.6903666E-1,7.431766E-1,1.7811359E0,-5.896181E-1,8.545159E-1,-5.390592E-1,1.6012193E-1,-1.6708139E0,-8.324255E-1,-3.031735E-1,-1.0372359E0,-1.527999E0,-7.5722796E-1,-1.3579098E0,-2.6523435E0,-3.2240448E0,-2.3820817E0,1.4717895E-1,5.899879E-1,2.8002748E-1,5.6422836E-1,2.5569406E-1,5.6267357E-1,1.7096446E-1,3.383661E-1,1.6093098E-1,4.3832693E-1,7.208993E-2,2.837913E-1,8.0878384E-2,-2.5887793E-2,3.9001748E-1,7.83993E-2,4.0169832E-1,1.2424853E-1,2.2149764E-1,6.1729056E-1,6.38292E-1,1.5079987E-1,2.0439107E-2,2.6559612E-1,-5.9693023E-3,4.827178E-1,-1.2681931E-1,6.425476E-2,-1.00543134E-1,-2.7136886E-1,1.9789901E-1,-7.677009E-2,2.4371187E-1,-7.930812E-2,4.4994566E-1,1.6292955E-1,-1.0670978E-1,7.6309824E-3,1.2647986E-1,-1.18295945E-1,-3.186389E-1,-4.8898138E-2,1.0495692E-1,-2.4048083E-2,-1.4399156E-1,-2.501854E-1,-2.5705892E-1,-3.616782E-2,-7.751664E-4,-7.5534225E-2,4.3858796E-2,-1.3028665E-1,-1.7252216E-1,-1.06410824E-1,-6.2383395E-2,-3.63059E-1,-2.500939E-1,-1.1557114E-1,-1.5122774E-1,-3.1957898E-1,-3.4062985E-1,-2.0268221E-1,-1.6703248E-1,-2.525581E-1],"categories":[],"categories_nodes":[],"categories_segments":[],"categories_sizes":[],"default_left":[0,0,0,0,0,0,0,0,0,0,0,0,0,0,0,0,0,0,0,0,0,0,0,0,0,0,0,0,0,0,0,0,0,0,0,0,0,0,0,0,0,0,0,0,0,0,0,0,0,0,0,0,0,0,0,0,0,0,0,0,0,0,0,0,0,0,0,0,0,0,0,0,0,0,0,0,0,0,0,0,0,0,0,0,0,0,0,0,0,0,0,0,0,0,0,0,0,0,0,0,0,0,0,0,0,0,0,0,0,0,0,0,0,0,0,0,0,0,0,0,0,0,0,0,0,0,0],"id":4,"left_children":[1,3,5,7,9,11,13,15,17,19,21,23,25,27,29,31,33,35,37,39,41,43,45,47,49,51,53,55,57,59,61,63,65,67,69,71,73,75,77,79,81,83,85,87,89,91,93,95,97,99,101,103,105,107,109,111,113,115,117,119,121,123,125,-1,-1,-1,-1,-1,-1,-1,-1,-1,-1,-1,-1,-1,-1,-1,-1,-1,-1,-1,-1,-1,-1,-1,-1,-1,-1,-1,-1,-1,-1,-1,-1,-1,-1,-1,-1,-1,-1,-1,-1,-1,-1,-1,-1,-1,-1,-1,-1,-1,-1,-1,-1,-1,-1,-1,-1,-1,-1,-1,-1,-1,-1,-1,-1],"loss_changes":[5.4943916E3,1.7676079E3,2.6082214E3,1.2886782E3,4.2568073E2,1.764388E3,8.5848145E2,1.3588867E2,3.5294305E2,1.9854703E2,8.5144844E1,2.518446E2,3.1308102E2,2.4470996E2,1.4119482E2,1.4624731E2,1.1520337E2,1.09909546E2,1.0782088E2,7.005621E1,1.5704654E2,7.6122154E1,6.067157E1,8.2027466E1,1.0298912E2,1.39236E2,4.6485535E1,1.0055385E2,8.012427E1,3.0839264E1,3.0076904E1,1.9911249E2,1.8609619E2,3.547024E2,1.597815E2,1.3065662E2,1.2970398E2,8.863463E1,7.445703E1,5.5866974E1,2.4769989E1,1.3014273E2,8.522769E1,9.581396E1,4.931041E1,2.8641068E1,1.255387E2,2.4134735E2,2.1555444E2,2.297506E1,1.3357489E2,9.2568436E1,1.6985834E2,3.5542236E1,8.416677E1,7.707008E1,1.0916205E2,4.7660156E1,6.8643616E1,4.1484406E1,8.797485E0,5.533386E0,4.572632E1,0E0,0E0,0E0,0E0,0E0,0E0,0E0,0E0,0E0,0E0,0E0,0E0,0E0,0E0,0E0,0E0,0E0,0E0,0E0,0E0,0E0,0E0,0E0,0E0,0E0,0E0,0E0,0E0,0E0,0E0,0E0,0E0,0E0,0E0,0E0,0E0,0E0,0E0,0E0,0E0,0E0,0E0,0E0,0E0,0E0,0E0,0E0,0E0,0E0,0E0,0E0,0E0,0E0,0E0,0E0,0E0,0E0,0E0,0E0,0E0,0E0,0E0,0E0,0E0],"parents":[2147483647,0,0,1,1,2,2,3,3,4,4,5,5,6,6,7,7,8,8,9,9,10,10,11,11,12,12,13,13,14,14,15,15,16,16,17,17,18,18,19,19,20,20,21,21,22,22,23,23,24,24,25,25,26,26,27,27,28,28,29,29,30,30,31,31,32,32,33,33,34,34,35,35,36,36,37,37,38,38,39,39,40,40,41,41,42,42,43,43,44,44,45,45,46,46,47,47,48,48,49,49,50,50,51,51,52,52,53,53,54,54,55,55,56,56,57,57,58,58,59,59,60,60,61,61,62,62],"right_children":[2,4,6,8,10,12,14,16,18,20,22,24,26,28,30,32,34,36,38,40,42,44,46,48,50,52,54,56,58,60,62,64,66,68,70,72,74,76,78,80,82,84,86,88,90,92,94,96,98,100,102,104,106,108,110,112,114,116,118,120,122,124,126,-1,-1,-1,-1,-1,-1,-1,-1,-1,-1,-1,-1,-1,-1,-1,-1,-1,-1,-1,-1,-1,-1,-1,-1,-1,-1,-1,-1,-1,-1,-1,-1,-1,-1,-1,-1,-1,-1,-1,-1,-1,-1,-1,-1,-1,-1,-1,-1,-1,-1,-1,-1,-1,-1,-1,-1,-1,-1,-1,-1,-1,-1,-1,-1],"split_conditions":[-4.3388373E-1,3.546049E-1,1E0,1E0,1E0,-3.546049E-1,5.6806475E-1,-8.2298386E-1,-7.485108E-1,6E0,5.6806475E-1,5.6806475E-1,9.350162E-1,-3.546049E-1,-2.4492937E-16,1.4E1,-6.6312265E-1,1E0,4.5E1,5E0,-2.4492937E-16,1.2E1,6.6312265E-1,7E0,1E0,7.818315E-1,2E0,4.6472317E-1,5E-1,4.5E1,-2.3931566E-1,2E0,1E0,-8.85456E-1,-7.818315E-1,-7.818315E-1,3E1,2.5E1,2E0,6.6312265E-1,7.485108E-1,1E1,4E1,-7.818315E-1,2.7E1,-7.818315E-1,-6.6312265E-1,3E0,9E0,7.818315E-1,9.749279E-1,1E0,1.6E1,1E0,0E0,6.234898E-1,1E0,3.6E1,2E1,6E0,1E0,1E0,-3.2162452E-16,1.4717895E-1,5.899879E-1,2.8002748E-1,5.6422836E-1,2.5569406E-1,5.6267357E-1,1.7096446E-1,3.383661E-1,1.6093098E-1,4.3832693E-1,7.208993E-2,2.837913E-1,8.0878384E-2,-2.5887793E-2,3.9001748E-1,7.83993E-2,4.0169832E-1,1.2424853E-1,2.2149764E-1,6.1729056E-1,6.38292E-1,1.5079987E-1,2.0439107E-2,2.6559612E-1,-5.9693023E-3,4.827178E-1,-1.2681931E-1,6.425476E-2,-1.00543134E-1,-2.7136886E-1,1.9789901E-1,-7.677009E-2,2.4371187E-1,-7.930812E-2,4.4994566E-1,1.6292955E-1,-1.0670978E-1,7.6309824E-3,1.2647986E-1,-1.18295945E-1,-3.186389E-1,-4.8898138E-2,1.0495692E-1,-2.4048083E-2,-1.4399156E-1,-2.501854E-1,-2.5705892E-1,-3.616782E-2,-7.751664E-4,-7.5534225E-2,4.3858796E-2,-1.3028665E-1,-1.7252216E-1,-1.06410824E-1,-6.2383395E-2,-3.63059E-1,-2.500939E-1,-1.1557114E-1,-1.5122774E-1,-3.1957898E-1,-3.4062985E-1,-2.0268221E-1,-1.6703248E-1,-2.525581E-1],"split_indices":[9,14,3,3,3,14,14,14,14,0,14,13,14,14,11,0,13,2,0,0,11,0,14,0,2,9,1,13,12,0,13,1,1,13,9,9,0,0,6,14,14,0,8,9,0,9,13,0,0,9,9,0,0,10,9,10,6,0,8,0,1,10,13,0,0,0,0,0,0,0,0,0,0,0,0,0,0,0,0,0,0,0,0,0,0,0,0,0,0,0,0,0,0,0,0,0,0,0,0,0,0,0,0,0,0,0,0,0,0,0,0,0,0,0,0,0,0,0,0,0,0,0,0,0,0,0,0],"split_type":[0,0,0,0,0,0,0,0,0,0,0,0,0,0,0,0,0,0,0,0,0,0,0,0,0,0,0,0,0,0,0,0,0,0,0,0,0,0,0,0,0,0,0,0,0,0,0,0,0,0,0,0,0,0,0,0,0,0,0,0,0,0,0,0,0,0,0,0,0,0,0,0,0,0,0,0,0,0,0,0,0,0,0,0,0,0,0,0,0,0,0,0,0,0,0,0,0,0,0,0,0,0,0,0,0,0,0,0,0,0,0,0,0,0,0,0,0,0,0,0,0,0,0,0,0,0,0],"sum_hessian":[6.57E3,1.89E3,4.68E3,1.116E3,7.74E2,2.348E3,2.332E3,5.79E2,5.37E2,4.18E2,3.56E2,8.58E2,1.49E3,1.576E3,7.56E2,1.67E2,4.12E2,1.92E2,3.45E2,4.7E1,3.71E2,7E1,2.86E2,6.3E2,2.28E2,1.184E3,3.06E2,8.52E2,7.24E2,2.12E2,5.44E2,5.4E1,1.13E2,1.75E2,2.37E2,7.2E1,1.2E2,3.14E2,3.1E1,3.6E1,1.1E1,9.2E1,2.79E2,1.5E1,5.5E1,4.2E1,2.44E2,9.1E1,5.39E2,7.1E1,1.57E2,7.09E2,4.75E2,2.03E2,1.03E2,5.76E2,2.76E2,5.4E2,1.84E2,1.91E2,2.1E1,5.6E1,4.88E2,4.1E1,1.3E1,3.8E1,7.5E1,1.18E2,5.7E1,1.3E2,1.07E2,3.2E1,4E1,7.1E1,4.9E1,1.76E2,1.38E2,1.4E1,1.7E1,1E1,2.6E1,4E0,7E0,5E0,8.7E1,2.65E2,1.4E1,8E0,7E0,2.1E1,3.4E1,2.2E1,2E1,1.7E1,2.27E2,4.3E1,4.8E1,2.7E1,5.12E2,4.1E1,3E1,1.31E2,2.6E1,1.2E1,6.97E2,1.47E2,3.28E2,1.61E2,4.2E1,2.1E1,8.2E1,3.49E2,2.27E2,4.2E1,2.34E2,3.77E2,1.63E2,1.77E2,7E0,2.7E1,1.64E2,8E0,1.3E1,4.7E1,9E0,8.4E1,4.04E2],"tree_param":{"num_deleted":"0","num_feature":"15","num_nodes":"127","size_leaf_vector":"1"}},{"base_weights":[3.0206211E-3,1.3008265E0,-5.2125925E-1,2.025399E0,2.54829E-1,1.4884843E-1,-1.1957392E0,2.9571137E0,1.0171834E0,8.723166E-1,-4.7061116E-1,9.6360946E-1,-5.99523E-1,-8.1607425E-1,-1.9850864E0,4.414266E0,2.7960515E0,2.1570914E0,5.4179597E-1,2.6195328E0,6.445244E-1,-1.6361296E-2,-9.1719925E-1,1.2439641E0,-1.6333787E-1,-3.7981698E-1,-1.2552569E0,-4.8790592E-1,-1.2010556E0,-1.3521113E0,-2.228827E0,7.680922E-1,5.8535337E0,2.970146E0,1.2543318E0,1.5465478E0,3.0532038E0,-1.7972212E-1,9.162066E-1,3.2182512E0,3.1309363E-1,1.6633373E0,3.0383113E-1,2.9827988E-1,-1.0111251E0,-1.1870058E0,-3.1416047E-1,1.5751299E0,5.8189976E-1,5.179733E-1,-1.0842453E0,-3.0963722E-1,-2.4491565E0,-1.5056648E0,-7.520021E-1,-1.6349074E-1,-8.430059E-1,-1.3757144E0,-6.838046E-1,-1.6824071E0,-9.078327E-1,-2.1604724E0,-3.2238917E0,-1.0105794E-1,5.23902E-1,1.020464E0,4.9403858E-1,7.3106885E-2,3.067819E-1,6.598184E-1,-7.981718E-3,2.9730228E-1,4.2912062E-2,1.9281155E-1,5.2115655E-1,2.1154955E-1,-5.6405317E-2,-6.858609E-2,1.3181432E-1,2.0119815E-1,5.383233E-1,-1.3078575E-1,3.4767225E-1,2.7872524E-1,5.5159938E-2,3.036318E-3,1.22631095E-1,-1.3455993E-1,6.447827E-2,-5.236106E-2,-4.6115127E-1,-2.0009838E-1,-5.3049456E-2,-1.19445324E-1,1.03907466E-1,6.931628E-2,1.9853072E-1,1.0631686E-1,-6.797641E-2,-3.9345977E-1,7.27553E-2,6.7705534E-2,-2.105927E-1,8.969794E-3,-5.9925165E-2,-1.5379176E-1,-3.8833043E-1,-1.2968129E-1,-2.2574873E-1,-2.3252144E-1,-3.2594588E-2,3.2517474E-2,-5.9397925E-2,-4.0886965E-2,-1.5461896E-1,-1.5531553E-1,-9.583461E-2,-2.1654168E-2,-1.4483574E-1,-3.3700684E-1,-1.4480585E-1,-6.0516782E-2,-2.4413453E-1,-2.2372122E-1,-1.3704455E-1,-1.8850107E-1,-3.64743E-1],"categories":[],"categories_nodes":[],"categories_segments":[],"categories_sizes":[],"default_left":[0,0,0,0,0,0,0,0,0,0,0,0,0,0,0,0,0,0,0,0,0,0,0,0,0,0,0,0,0,0,0,0,0,0,0,0,0,0,0,0,0,0,0,0,0,0,0,0,0,0,0,0,0,0,0,0,0,0,0,0,0,0,0,0,0,0,0,0,0,0,0,0,0,0,0,0,0,0,0,0,0,0,0,0,0,0,0,0,0,0,0,0,0,0,0,0,0,0,0,0,0,0,0,0,0,0,0,0,0,0,0,0,0,0,0,0,0,0,0,0,0,0,0,0,0,0,0],"id":5,"left_children":[1,3,5,7,9,11,13,15,17,19,21,23,25,27,29,31,33,35,37,39,41,43,45,47,49,51,53,55,57,59,61,63,65,67,69,71,73,75,77,79,81,83,85,87,89,91,93,95,97,99,101,103,105,107,109,111,113,115,117,119,121,123,125,-1,-1,-1,-1,-1,-1,-1,-1,-1,-1,-1,-1,-1,-1,-1,-1,-1,-1,-1,-1,-1,-1,-1,-1,-1,-1,-1,-1,-1,-1,-1,-1,-1,-1,-1,-1,-1,-1,-1,-1,-1,-1,-1,-1,-1,-1,-1,-1,-1,-1,-1,-1,-1,-1,-1,-1,-1,-1,-1,-1,-1,-1,-1,-1],"loss_changes":[4.4716753E3,1.4326738E3,2.1158694E3,1.0462676E3,3.4757202E2,1.432866E3,6.97551E2,1.237793E2,2.9037238E2,1.6507455E2,7.2406944E1,3.5564124E2,1.7600732E2,1.9865002E2,1.1377759E2,2.8938184E2,1.3718701E2,8.172235E1,1.0308956E2,6.527597E1,1.2861684E2,5.601447E1,2.8913773E1,1.966305E2,1.4173213E2,1.3270416E2,3.7555573E1,9.812764E1,6.455762E1,2.9729004E1,3.0104492E1,1.4048375E2,1.0851318E2,1.0076318E2,3.9264886E2,1.5174649E2,1.4293744E2,1.1675143E2,1.6253033E2,8.840796E1,6.095602E1,1.14665955E2,7.059799E1,7.833442E1,7.306072E1,6.52023E1,6.914199E1,2.1568164E2,1.8409695E2,1.24174484E2,1.7417673E2,1.0298512E2,3.3233337E1,2.9104431E1,6.895091E1,9.422624E1,1.2361572E2,3.8576965E1,6.577708E1,4.2975586E1,4.1687622E1,2.8035645E1,1.1837738E1,0E0,0E0,0E0,0E0,0E0,0E0,0E0,0E0,0E0,0E0,0E0,0E0,0E0,0E0,0E0,0E0,0E0,0E0,0E0,0E0,0E0,0E0,0E0,0E0,0E0,0E0,0E0,0E0,0E0,0E0,0E0,0E0,0E0,0E0,0E0,0E0,0E0,0E0,0E0,0E0,0E0,0E0,0E0,0E0,0E0,0E0,0E0,0E0,0E0,0E0,0E0,0E0,0E0,0E0,0E0,0E0,0E0,0E0,0E0,0E0,0E0,0E0,0E0,0E0],"parents":[2147483647,0,0,1,1,2,2,3,3,4,4,5,5,6,6,7,7,8,8,9,9,10,10,11,11,12,12,13,13,14,14,15,15,16,16,17,17,18,18,19,19,20,20,21,21,22,22,23,23,24,24,25,25,26,26,27,27,28,28,29,29,30,30,31,31,32,32,33,33,34,34,35,35,36,36,37,37,38,38,39,39,40,40,41,41,42,42,43,43,44,44,45,45,46,46,47,47,48,48,49,49,50,50,51,51,52,52,53,53,54,54,55,55,56,56,57,57,58,58,59,59,60,60,61,61,62,62],"right_children":[2,4,6,8,10,12,14,16,18,20,22,24,26,28,30,32,34,36,38,40,42,44,46,48,50,52,54,56,58,60,62,64,66,68,70,72,74,76,78,80,82,84,86,88,90,92,94,96,98,100,102,104,106,108,110,112,114,116,118,120,122,124,126,-1,-1,-1,-1,-1,-1,-1,-1,-1,-1,-1,-1,-1,-1,-1,-1,-1,-1,-1,-1,-1,-1,-1,-1,-1,-1,-1,-1,-1,-1,-1,-1,-1,-1,-1,-1,-1,-1,-1,-1,-1,-1,-1,-1,-1,-1,-1,-1,-1,-1,-1,-1,-1,-1,-1,-1,-1,-1,-1,-1,-1,-1,-1,-1],"split_conditions":[-4.3388373E-1,3.546049E-1,1E0,1E0,1E0,-1.8369701E-16,5.6806475E-1,-9.7094184E-1,-8.2298386E-1,6E0,8.2298386E-1,8.2298386E-1,9.350162E-1,-3.546049E-1,-2.4492937E-16,1.4E1,4.5E1,2E0,1.6E1,1E0,-2.4492937E-16,3.9E1,2E0,2E0,2.8E1,4E1,2E0,2.6E1,5E-1,6.234898E-1,4.7E1,2E0,1.8E1,2E0,1E0,2.2E1,3.2E1,2E0,-5E-1,8.2298386E-1,2E0,-7.818315E-1,7.485108E-1,2E0,9.350162E-1,2.3E1,2.3931566E-1,1E0,2.3931566E-1,1E0,1E0,2.1E1,3.7E1,1E0,0E0,-8.2298386E-1,3.546049E-1,3.6E1,2E0,6E0,4.3E1,4.3E1,2E0,-1.0105794E-1,5.23902E-1,1.020464E0,4.9403858E-1,7.3106885E-2,3.067819E-1,6.598184E-1,-7.981718E-3,2.9730228E-1,4.2912062E-2,1.9281155E-1,5.2115655E-1,2.1154955E-1,-5.6405317E-2,-6.858609E-2,1.3181432E-1,2.0119815E-1,5.383233E-1,-1.3078575E-1,3.4767225E-1,2.7872524E-1,5.5159938E-2,3.036318E-3,1.22631095E-1,-1.3455993E-1,6.447827E-2,-5.236106E-2,-4.6115127E-1,-2.0009838E-1,-5.3049456E-2,-1.19445324E-1,1.03907466E-1,6.931628E-2,1.9853072E-1,1.0631686E-1,-6.797641E-2,-3.9345977E-1,7.27553E-2,6.7705534E-2,-2.105927E-1,8.969794E-3,-5.9925165E-2,-1.5379176E-1,-3.8833043E-1,-1.2968129E-1,-2.2574873E-1,-2.3252144E-1,-3.2594588E-2,3.2517474E-2,-5.9397925E-2,-4.0886965E-2,-1.5461896E-1,-1.5531553E-1,-9.583461E-2,-2.1654168E-2,-1.4483574E-1,-3.3700684E-1,-1.4480585E-1,-6.0516782E-2,-2.4413453E-1,-2.2372122E-1,-1.3704455E-1,-1.8850107E-1,-3.64743E-1],"split_indices":[9,14,3,3,3,14,14,14,14,0,14,13,14,14,11,0,0,1,0,12,11,0,2,1,0,8,1,0,12,10,0,1,0,0,6,0,0,0,12,14,1,9,13,6,13,0,13,2,13,6,2,0,0,10,9,14,13,0,2,0,0,0,6,0,0,0,0,0,0,0,0,0,0,0,0,0,0,0,0,0,0,0,0,0,0,0,0,0,0,0,0,0,0,0,0,0,0,0,0,0,0,0,0,0,0,0,0,0,0,0,0,0,0,0,0,0,0,0,0,0,0,0,0,0,0,0,0],"split_type":[0,0,0,0,0,0,0,0,0,0,0,0,0,0,0,0,0,0,0,0,0,0,0,0,0,0,0,0,0,0,0,0,0,0,0,0,0,0,0,0,0,0,0,0,0,0,0,0,0,0,0,0,0,0,0,0,0,0,0,0,0,0,0,0,0,0,0,0,0,0,0,0,0,0,0,0,0,0,0,0,0,0,0,0,0,0,0,0,0,0,0,0,0,0,0,0,0,0,0,0,0,0,0,0,0,0,0,0,0,0,0,0,0,0,0,0,0,0,0,0,0,0,0,0,0,0,0],"sum_hessian":[6.57E3,1.89E3,4.68E3,1.116E3,7.74E2,2.348E3,2.332E3,5.79E2,5.37E2,4.18E2,3.56E2,1.124E3,1.224E3,1.576E3,7.56E2,5.5E1,5.24E2,1.57E2,3.8E2,4.7E1,3.71E2,1.77E2,1.79E2,9E2,2.24E2,9.18E2,3.06E2,8.52E2,7.24E2,2.12E2,5.44E2,1.6E1,3.9E1,4.7E2,5.4E1,9.5E1,6.2E1,1.3E2,2.5E2,3.7E1,1E1,9.2E1,2.79E2,1.35E2,4.2E1,1.23E2,5.6E1,5.99E2,3.01E2,1.29E2,9.5E1,8.89E2,2.9E1,2.03E2,1.03E2,4.46E2,4.06E2,5.4E2,1.84E2,1.2E2,9.2E1,5.12E2,3.2E1,1.2E1,4E0,5E0,3.4E1,2E1,4.5E2,1E1,4.4E1,4.1E1,5.4E1,4.2E1,2E1,1.8E1,1.12E2,5E1,2E2,2.5E1,1.2E1,7E0,3E0,4.5E1,4.7E1,2.16E2,6.3E1,2.3E1,1.12E2,3.8E1,4E0,5.4E1,6.9E1,3.4E1,2.2E1,1.91E2,4.08E2,2.18E2,8.3E1,5E0,1.24E2,3.5E1,6E1,3.74E2,5.15E2,1.9E1,1E1,1.61E2,4.2E1,2.1E1,8.2E1,2.09E2,2.37E2,2.52E2,1.54E2,3.77E2,1.63E2,1.15E2,6.9E1,1.3E1,1.07E2,7.8E1,1.4E1,4.65E2,4.7E1,9E0,2.3E1],"tree_param":{"num_deleted":"0","num_feature":"15","num_nodes":"127","size_leaf_vector":"1"}},{"base_weights":[2.884987E-3,1.1732851E0,-4.6992627E-1,1.8266565E0,2.3007338E-1,1.3337983E-1,-1.0771685E0,2.6665213E0,9.1783047E-1,7.884642E-1,-4.2593735E-1,1.1591992E0,-3.6181587E-1,-7.348727E-1,-1.788824E0,4.0074353E0,2.5184116E0,1.815727E0,4.1432798E-1,2.3775043E0,5.8130723E-1,1.3242497E0,-5.2823853E-1,1.4534394E0,4.3295667E-1,-1.3451795E-3,-8.2818264E-1,-4.393761E-1,-1.0815262E0,-1.2205926E0,-2.0076213E0,7.1615624E-1,5.3060427E0,2.673938E0,1.1407499E0,2.687839E0,1.2745708E0,2.572097E-1,1.9480133E0,1.6733325E0,4.350576E0,1.5005937E0,2.738967E-1,3.1696208E0,3.069751E-1,-2.3370412E-1,-9.80463E-1,8.722007E-1,1.8575807E0,9.522708E-1,-5.573397E-1,6.497276E-2,-1.2554611E0,-7.266415E-2,-1.066932E0,-2.5495556E-3,-6.6673934E-1,-1.2386073E0,-6.163242E-1,-9.581709E-1,-1.7319406E0,-2.687562E0,-1.9242587E0,-9.172951E-2,4.8198983E-1,9.354253E-1,4.4604626E-1,2.1044934E-1,3.012698E-1,5.998349E-1,-7.2013247E-3,1.2602827E-1,3.7712908E-1,4.8551016E-2,2.3853266E-1,7.119307E-2,-3.2367397E-2,-2.7828142E-1,2.3561624E-1,2.8218055E-1,4.3678917E-2,5.2270615E-1,1.2908402E-1,4.8407936E-1,1.1292715E-1,9.524392E-2,-8.530178E-3,3.9353225E-1,1.611514E-1,-4.851771E-1,1.5710804E-1,-6.0652614E-2,1.8124695E-1,-1.806734E-3,-1.4560513E-1,1.1285251E-1,-1.0493084E-1,1.3803843E-1,2.821551E-1,1.6506587E-1,3.166993E-3,-2.7077946E-1,-7.821925E-3,-1.8890447E-3,2.955546E-1,-2.3219073E-1,1.0322251E-1,5.573535E-2,-1.2662725E-1,-1.2524955E-1,-6.7881346E-2,6.295293E-2,-5.616799E-2,-2.1768173E-2,-1.05390646E-1,-1.3041286E-1,-2.8326098E-2,-4.939023E-2,-3.2631707E-1,8.91045E-3,-1.2253647E-1,-2.2901984E-1,-7.9282366E-2,-2.0880654E-1,-3.060285E-1,-1.289647E-1,-2.0526974E-1],"categories":[],"categories_nodes":[],"categories_segments":[],"categories_sizes":[],"default_left":[0,0,0,0,0,0,0,0,0,0,0,0,0,0,0,0,0,0,0,0,0,0,0,0,0,0,0,0,0,0,0,0,0,0,0,0,0,0,0,0,0,0,0,0,0,0,0,0,0,0,0,0,0,0,0,0,0,0,0,0,0,0,0,0,0,0,0,0,0,0,0,0,0,0,0,0,0,0,0,0,0,0,0,0,0,0,0,0,0,0,0,0,0,0,0,0,0,0,0,0,0,0,0,0,0,0,0,0,0,0,0,0,0,0,0,0,0,0,0,0,0,0,0,0,0,0,0],"id":6,"left_children":[1,3,5,7,9,11,13,15,17,19,21,23,25,27,29,31,33,35,37,39,41,43,45,47,49,51,53,55,57,59,61,63,65,67,69,71,73,75,77,79,81,83,85,87,89,91,93,95,97,99,101,103,105,107,109,111,113,115,117,119,121,123,125,-1,-1,-1,-1,-1,-1,-1,-1,-1,-1,-1,-1,-1,-1,-1,-1,-1,-1,-1,-1,-1,-1,-1,-1,-1,-1,-1,-1,-1,-1,-1,-1,-1,-1,-1,-1,-1,-1,-1,-1,-1,-1,-1,-1,-1,-1,-1,-1,-1,-1,-1,-1,-1,-1,-1,-1,-1,-1,-1,-1,-1,-1,-1,-1],"loss_changes":[3.6368003E3,1.1649417E3,1.7150415E3,8.501489E2,2.8422638E2,1.1936675E3,5.669966E2,1.0509717E2,2.4247385E2,1.3654471E2,6.4619026E1,1.628435E2,2.664557E2,1.610647E2,9.166528E1,2.3554852E2,1.09437744E2,8.766034E1,8.2874565E1,5.941037E1,1.0471558E2,3.6571987E1,4.4791023E1,1.2616675E2,1.1469977E2,7.4519066E1,1.2456476E2,8.471681E1,5.2215515E1,2.6922699E1,2.571997E1,1.18376724E2,9.519922E1,8.451807E1,3.2444342E2,1.08155334E2,1.0489279E2,8.343454E1,6.834499E1,5.1312515E1,2.5434448E1,1.0988043E2,6.832605E1,2.009491E0,9.89193E1,1.5824815E2,6.0848312E1,1.1200331E2,1.4330615E2,9.381644E1,7.912338E1,2.0634906E2,1.1218298E2,1.262888E2,3.696057E1,1.0390404E2,9.7306244E1,3.3494873E1,5.8334213E1,4.0124237E1,3.5407394E1,6.346344E0,3.721045E1,0E0,0E0,0E0,0E0,0E0,0E0,0E0,0E0,0E0,0E0,0E0,0E0,0E0,0E0,0E0,0E0,0E0,0E0,0E0,0E0,0E0,0E0,0E0,0E0,0E0,0E0,0E0,0E0,0E0,0E0,0E0,0E0,0E0,0E0,0E0,0E0,0E0,0E0,0E0,0E0,0E0,0E0,0E0,0E0,0E0,0E0,0E0,0E0,0E0,0E0,0E0,0E0,0E0,0E0,0E0,0E0,0E0,0E0,0E0,0E0,0E0,0E0,0E0,0E0],"parents":[2147483647,0,0,1,1,2,2,3,3,4,4,5,5,6,6,7,7,8,8,9,9,10,10,11,11,12,12,13,13,14,14,15,15,16,16,17,17,18,18,19,19,20,20,21,21,22,22,23,23,24,24,25,25,26,26,27,27,28,28,29,29,30,30,31,31,32,32,33,33,34,34,35,35,36,36,37,37,38,38,39,39,40,40,41,41,42,42,43,43,44,44,45,45,46,46,47,47,48,48,49,49,50,50,51,51,52,52,53,53,54,54,55,55,56,56,57,57,58,58,59,59,60,60,61,61,62,62],"right_children":[2,4,6,8,10,12,14,16,18,20,22,24,26,28,30,32,34,36,38,40,42,44,46,48,50,52,54,56,58,60,62,64,66,68,70,72,74,76,78,80,82,84,86,88,90,92,94,96,98,100,102,104,106,108,110,112,114,116,118,120,122,124,126,-1,-1,-1,-1,-1,-1,-1,-1,-1,-1,-1,-1,-1,-1,-1,-1,-1,-1,-1,-1,-1,-1,-1,-1,-1,-1,-1,-1,-1,-1,-1,-1,-1,-1,-1,-1,-1,-1,-1,-1,-1,-1,-1,-1,-1,-1,-1,-1,-1,-1,-1,-1,-1,-1,-1,-1,-1,-1,-1,-1,-1,-1,-1,-1],"split_conditions":[-4.3388373E-1,3.546049E-1,1E0,1E0,1E0,-4.6472317E-1,5.6806475E-1,-9.7094184E-1,-7.485108E-1,6E0,-8.85456E-1,4.6472317E-1,6.6312265E-1,-3.546049E-1,-2.4492937E-16,1.4E1,4.5E1,1E0,4.5E1,5E0,-2.4492937E-16,1.2E1,3.1E1,2E0,2E0,4E1,-2.4492937E-16,1.6E1,5E-1,2E0,-2.3931566E-1,2E0,1.8E1,1.8E1,1E0,-7.818315E-1,3E1,2.5E1,-9.9270886E-1,2E0,1E0,1.1E1,1E0,7E0,1.8E1,2.7E1,-2.3931566E-1,4.5E1,2E0,7.485108E-1,0E0,3E1,1E0,2E0,2E0,-8.2298386E-1,-2.4492937E-16,4.6472317E-1,2E1,-7.485108E-1,-5.6806475E-1,4.3388373E-1,-3.2162452E-16,-9.172951E-2,4.8198983E-1,9.354253E-1,4.4604626E-1,2.1044934E-1,3.012698E-1,5.998349E-1,-7.2013247E-3,1.2602827E-1,3.7712908E-1,4.8551016E-2,2.3853266E-1,7.119307E-2,-3.2367397E-2,-2.7828142E-1,2.3561624E-1,2.8218055E-1,4.3678917E-2,5.2270615E-1,1.2908402E-1,4.8407936E-1,1.1292715E-1,9.524392E-2,-8.530178E-3,3.9353225E-1,1.611514E-1,-4.851771E-1,1.5710804E-1,-6.0652614E-2,1.8124695E-1,-1.806734E-3,-1.4560513E-1,1.1285251E-1,-1.0493084E-1,1.3803843E-1,2.821551E-1,1.6506587E-1,3.166993E-3,-2.7077946E-1,-7.821925E-3,-1.8890447E-3,2.955546E-1,-2.3219073E-1,1.0322251E-1,5.573535E-2,-1.2662725E-1,-1.2524955E-1,-6.7881346E-2,6.295293E-2,-5.616799E-2,-2.1768173E-2,-1.05390646E-1,-1.3041286E-1,-2.8326098E-2,-4.939023E-2,-3.2631707E-1,8.91045E-3,-1.2253647E-1,-2.2901984E-1,-7.9282366E-2,-2.0880654E-1,-3.060285E-1,-1.289647E-1,-2.0526974E-1],"split_indices":[9,14,3,3,3,14,14,14,14,0,13,13,14,14,11,0,0,2,0,0,11,0,0,6,1,8,11,0,12,2,13,1,0,0,6,9,0,0,13,0,12,0,1,0,0,0,13,0,2,13,9,8,6,2,1,14,11,14,8,13,13,9,13,0,0,0,0,0,0,0,0,0,0,0,0,0,0,0,0,0,0,0,0,0,0,0,0,0,0,0,0,0,0,0,0,0,0,0,0,0,0,0,0,0,0,0,0,0,0,0,0,0,0,0,0,0,0,0,0,0,0,0,0,0,0,0,0],"split_type":[0,0,0,0,0,0,0,0,0,0,0,0,0,0,0,0,0,0,0,0,0,0,0,0,0,0,0,0,0,0,0,0,0,0,0,0,0,0,0,0,0,0,0,0,0,0,0,0,0,0,0,0,0,0,0,0,0,0,0,0,0,0,0,0,0,0,0,0,0,0,0,0,0,0,0,0,0,0,0,0,0,0,0,0,0,0,0,0,0,0,0,0,0,0,0,0,0,0,0,0,0,0,0,0,0,0,0,0,0,0,0,0,0,0,0,0,0,0,0,0,0,0,0,0,0,0,0],"sum_hessian":[6.57E3,1.89E3,4.68E3,1.116E3,7.74E2,2.348E3,2.332E3,5.79E2,5.37E2,4.18E2,3.56E2,7.64E2,1.584E3,1.576E3,7.56E2,5.5E1,5.24E2,1.92E2,3.45E2,4.7E1,3.71E2,1.9E1,3.37E2,5.43E2,2.21E2,8.94E2,6.9E2,8.52E2,7.24E2,2.12E2,5.44E2,1.6E1,3.9E1,4.7E2,5.4E1,7.2E1,1.2E2,3.14E2,3.1E1,3.6E1,1.1E1,9.2E1,2.79E2,6E0,1.3E1,2.05E2,1.32E2,2.24E2,3.19E2,1.45E2,7.6E1,8.5E2,4.4E1,1.66E2,5.24E2,2.92E2,5.6E2,5.4E2,1.84E2,1.42E2,7E1,5.6E1,4.88E2,1.2E1,4E0,5E0,3.4E1,1.78E2,2.92E2,1E1,4.4E1,3.2E1,4E1,7.1E1,4.9E1,1.76E2,1.38E2,2E0,2.9E1,1.8E1,1.8E1,8E0,3E0,8E0,8.4E1,9.6E1,1.83E2,3E0,3E0,2E0,1.1E1,1.74E2,3.1E1,4.4E1,8.8E1,1.98E2,2.6E1,2.15E2,1.04E2,8.2E1,6.3E1,1.3E1,6.3E1,8.27E2,2.3E1,3E1,1.4E1,1.09E2,5.7E1,3.53E2,1.71E2,1.37E2,1.55E2,2.6E2,3E2,5.05E2,3.5E1,1.77E2,7E0,2.9E1,1.13E2,4.3E1,2.7E1,2.4E1,3.2E1,8.4E1,4.04E2],"tree_param":{"num_deleted":"0","num_feature":"15","num_nodes":"127","size_leaf_vector":"1"}},{"base_weights":[3.177368E-3,1.0588777E0,-4.232983E-1,1.6472698E0,2.0946766E-1,1.2013497E-1,-9.702771E-1,2.4048283E0,8.275093E-1,7.135831E-1,-3.8278395E-1,1.0436947E0,-3.2569677E-1,-6.618007E-1,-1.6116205E0,2.7467039E0,1.8649732E0,2.6855419E0,6.189294E-1,1.2033379E0,1.6086008E-1,4.0274534E-1,-5.757798E-1,1.3088825E0,3.8916388E-1,-1.0264573E-3,-7.457463E-1,-3.9557958E-1,-9.741107E-1,-1.1005139E0,-1.808417E0,2.1920724E0,4.0716147E0,1.1647317E0,2.5925722E0,3.7532728E0,-2.3878021E0,3.8844657E-1,2.758568E0,4.4451194E0,1.0132681E0,-1.01959676E-1,1.4315777E0,9.6777374E-1,-9.886448E-1,-1.6485568E0,-3.8514632E-1,7.8501624E-1,1.6731356E0,8.58196E-1,-5.052238E-1,-2.374644E-1,3.4294498E-1,-6.582249E-2,-9.6060634E-1,-1.2287051E-1,-6.9411856E-1,-1.212767E0,-7.2606707E-1,-3.6873797E-1,-1.0459998E0,-1.7465601E0,-2.7152092E0,3.9141318E-1,1.8664744E-1,2.7538052E-1,5.361268E-1,1.7837678E-1,-1.854434E-2,1.5166408E-1,3.4496206E-1,1.9751069E-1,5.226872E-1,1.6005415E-1,-3.5849556E-1,-1.670343E-2,6.409893E-2,6.434505E-1,1.9544165E-1,-2.4269663E-1,5.290488E-1,5.550694E-2,1.727324E-1,2.6551181E-2,-2.1704204E-1,5.430386E-1,3.8074777E-2,1.9795164E-2,2.80215E-1,1.0704525E-1,-2.338124E-1,-3.673192E-1,-1.2854947E-1,6.665528E-2,-7.686296E-2,6.569673E-2,4.6789733E-1,1.2429847E-1,2.542083E-1,-2.0606479E-2,1.3498166E-1,4.6977773E-3,-2.3178278E-1,-1.3085268E-1,-1.1095819E-2,1.2184032E-1,7.6906206E-3,5.021246E-2,-1.1418287E-1,-1.4646073E-1,-8.15668E-2,-6.143102E-2,2.0157075E-2,-3.276221E-2,-1.2878573E-1,-1.5657045E-1,-8.551818E-2,-7.824689E-3,-9.274828E-2,1.1052915E-1,-1.1366712E-1,-2.4151126E-1,-1.6659097E-1,-1.5306167E-1,-3.0956557E-1],"categories":[],"categories_nodes":[],"categories_segments":[],"categories_sizes":[],"default_left":[0,0,0,0,0,0,0,0,0,0,0,0,0,0,0,0,0,0,0,0,0,0,0,0,0,0,0,0,0,0,0,0,0,0,0,0,0,0,0,0,0,0,0,0,0,0,0,0,0,0,0,0,0,0,0,0,0,0,0,0,0,0,0,0,0,0,0,0,0,0,0,0,0,0,0,0,0,0,0,0,0,0,0,0,0,0,0,0,0,0,0,0,0,0,0,0,0,0,0,0,0,0,0,0,0,0,0,0,0,0,0,0,0,0,0,0,0,0,0,0,0,0,0,0,0],"id":7,"left_children":[1,3,5,7,9,11,13,15,17,19,21,23,25,27,29,31,33,35,37,39,41,43,45,47,49,51,53,55,57,59,61,63,65,67,69,71,73,75,77,79,81,83,85,87,89,91,93,95,97,99,101,103,105,107,109,111,113,115,117,-1,119,121,123,-1,-1,-1,-1,-1,-1,-1,-1,-1,-1,-1,-1,-1,-1,-1,-1,-1,-1,-1,-1,-1,-1,-1,-1,-1,-1,-1,-1,-1,-1,-1,-1,-1,-1,-1,-1,-1,-1,-1,-1,-1,-1,-1,-1,-1,-1,-1,-1,-1,-1,-1,-1,-1,-1,-1,-1,-1,-1,-1,-1,-1,-1],"loss_changes":[2.9589128E3,9.447505E2,1.3915273E3,6.9168555E2,2.3165962E2,9.675459E2,4.6049268E2,1.0192407E2,2.068388E2,1.132292E2,5.4354473E1,1.3227448E2,2.1615778E2,1.3073193E2,7.415198E1,2.5047241E2,1.1314526E2,3.014783E2,2.3810614E2,1.3228445E2,6.627196E1,5.67752E1,5.805864E1,1.0249255E2,9.356181E1,7.28699E1,1.0088385E2,6.9361115E1,4.2037415E1,2.618042E1,2.5827393E1,1.3342981E2,1.6028625E2,9.8956055E1,9.712402E1,1.0759009E2,5.3484467E1,6.1691154E1,1.2635681E2,8.255315E1,6.8076096E1,1.2599282E2,1.4080269E2,7.1464615E1,6.0855743E1,2.688607E1,9.932305E1,1.091149E2,1.164494E2,7.6667175E1,7.717995E1,7.18032E1,8.491693E1,1.02629486E2,3.715616E1,7.139499E1,8.814256E1,4.5104553E1,4.6639664E1,0E0,4.221907E1,2.3636963E1,1.0133987E1,0E0,0E0,0E0,0E0,0E0,0E0,0E0,0E0,0E0,0E0,0E0,0E0,0E0,0E0,0E0,0E0,0E0,0E0,0E0,0E0,0E0,0E0,0E0,0E0,0E0,0E0,0E0,0E0,0E0,0E0,0E0,0E0,0E0,0E0,0E0,0E0,0E0,0E0,0E0,0E0,0E0,0E0,0E0,0E0,0E0,0E0,0E0,0E0,0E0,0E0,0E0,0E0,0E0,0E0,0E0,0E0,0E0,0E0,0E0,0E0,0E0,0E0],"parents":[2147483647,0,0,1,1,2,2,3,3,4,4,5,5,6,6,7,7,8,8,9,9,10,10,11,11,12,12,13,13,14,14,15,15,16,16,17,17,18,18,19,19,20,20,21,21,22,22,23,23,24,24,25,25,26,26,27,27,28,28,29,29,30,30,31,31,32,32,33,33,34,34,35,35,36,36,37,37,38,38,39,39,40,40,41,41,42,42,43,43,44,44,45,45,46,46,47,47,48,48,49,49,50,50,51,51,52,52,53,53,54,54,55,55,56,56,57,57,58,58,60,60,61,61,62,62],"right_children":[2,4,6,8,10,12,14,16,18,20,22,24,26,28,30,32,34,36,38,40,42,44,46,48,50,52,54,56,58,60,62,64,66,68,70,72,74,76,78,80,82,84,86,88,90,92,94,96,98,100,102,104,106,108,110,112,114,116,118,-1,120,122,124,-1,-1,-1,-1,-1,-1,-1,-1,-1,-1,-1,-1,-1,-1,-1,-1,-1,-1,-1,-1,-1,-1,-1,-1,-1,-1,-1,-1,-1,-1,-1,-1,-1,-1,-1,-1,-1,-1,-1,-1,-1,-1,-1,-1,-1,-1,-1,-1,-1,-1,-1,-1,-1,-1,-1,-1,-1,-1,-1,-1,-1,-1],"split_conditions":[-4.3388373E-1,3.546049E-1,1E0,1E0,1E0,-4.6472317E-1,5.6806475E-1,-3.546049E-1,-9.7094184E-1,8.85456E-1,5.6806475E-1,4.6472317E-1,6.6312265E-1,-3.546049E-1,-2.4492937E-16,2E0,-1.8369701E-16,3.8E1,4.5E1,2E0,4.2E1,3.7E1,6.6312265E-1,2E0,2E0,7.818315E-1,-2.4492937E-16,2.6E1,1.2053668E-1,1E0,4.7E1,-6.6312265E-1,-7.818315E-1,2E0,2.4E1,-7.818315E-1,1E0,1.4E1,-8.660254E-1,-5E-1,3.2E1,3.6E1,1E0,2.7E1,-5E-1,4E0,8.2298386E-1,2.3931566E-1,2E0,1E0,9.749279E-1,5E0,1E1,2E0,0E0,4.3388373E-1,3.546049E-1,2.5E1,-9.350162E-1,-3.6873797E-1,3E0,-2.3931566E-1,2E0,3.9141318E-1,1.8664744E-1,2.7538052E-1,5.361268E-1,1.7837678E-1,-1.854434E-2,1.5166408E-1,3.4496206E-1,1.9751069E-1,5.226872E-1,1.6005415E-1,-3.5849556E-1,-1.670343E-2,6.409893E-2,6.434505E-1,1.9544165E-1,-2.4269663E-1,5.290488E-1,5.550694E-2,1.727324E-1,2.6551181E-2,-2.1704204E-1,5.430386E-1,3.8074777E-2,1.9795164E-2,2.80215E-1,1.0704525E-1,-2.338124E-1,-3.673192E-1,-1.2854947E-1,6.665528E-2,-7.686296E-2,6.569673E-2,4.6789733E-1,1.2429847E-1,2.542083E-1,-2.0606479E-2,1.3498166E-1,4.6977773E-3,-2.3178278E-1,-1.3085268E-1,-1.1095819E-2,1.2184032E-1,7.6906206E-3,5.021246E-2,-1.1418287E-1,-1.4646073E-1,-8.15668E-2,-6.143102E-2,2.0157075E-2,-3.276221E-2,-1.2878573E-1,-1.5657045E-1,-8.551818E-2,-7.824689E-3,-9.274828E-2,1.1052915E-1,-1.1366712E-1,-2.4151126E-1,-1.6659097E-1,-1.5306167E-1,-3.0956557E-1],"split_indices":[9,14,3,3,3,14,14,14,14,14,14,13,14,14,11,1,14,0,0,0,0,0,14,6,1,9,11,0,14,0,0,13,9,1,0,9,2,0,12,11,0,0,2,0,11,0,14,13,2,2,9,0,0,2,9,9,13,0,13,0,0,13,6,0,0,0,0,0,0,0,0,0,0,0,0,0,0,0,0,0,0,0,0,0,0,0,0,0,0,0,0,0,0,0,0,0,0,0,0,0,0,0,0,0,0,0,0,0,0,0,0,0,0,0,0,0,0,0,0,0,0,0,0,0,0],"split_type":[0,0,0,0,0,0,0,0,0,0,0,0,0,0,0,0,0,0,0,0,0,0,0,0,0,0,0,0,0,0,0,0,0,0,0,0,0,0,0,0,0,0,0,0,0,0,0,0,0,0,0,0,0,0,0,0,0,0,0,0,0,0,0,0,0,0,0,0,0,0,0,0,0,0,0,0,0,0,0,0,0,0,0,0,0,0,0,0,0,0,0,0,0,0,0,0,0,0,0,0,0,0,0,0,0,0,0,0,0,0,0,0,0,0,0,0,0,0,0,0,0,0,0,0,0],"sum_hessian":[6.57E3,1.89E3,4.68E3,1.116E3,7.74E2,2.348E3,2.332E3,5.79E2,5.37E2,4.18E2,3.56E2,7.64E2,1.584E3,1.576E3,7.56E2,3.52E2,2.27E2,5.3E1,4.84E2,2.21E2,1.97E2,7E1,2.86E2,5.43E2,2.21E2,8.94E2,6.9E2,8.52E2,7.24E2,2.12E2,5.44E2,2.5E2,1.02E2,1.17E2,1.1E2,4.4E1,9E0,4.38E2,4.6E1,1.1E1,2.1E2,1.64E2,3.3E1,5E1,2E1,4.2E1,2.44E2,2.24E2,3.19E2,1.45E2,7.6E1,5.3E2,3.64E2,1.66E2,5.24E2,4.46E2,4.06E2,3.67E2,3.57E2,3E0,2.09E2,5.12E2,3.2E1,3.8E1,2.12E2,5.2E1,5E1,8E1,3.7E1,5E1,6E1,2.1E1,2.3E1,2E0,7E0,1.37E2,3.01E2,7E0,3.9E1,1E0,1E1,1.29E2,8.1E1,1.4E2,2.4E1,6E0,2.7E1,3.6E1,1.4E1,8E0,1.2E1,5E0,3.7E1,6.5E1,1.79E2,2.18E2,6E0,2.15E2,1.04E2,4.6E1,9.9E1,5.9E1,1.7E1,5.5E1,4.75E2,8.4E1,2.8E2,1.09E2,5.7E1,1.15E2,4.09E2,1.77E2,2.69E2,2.52E2,1.54E2,1.83E2,1.84E2,8.5E1,2.72E2,8E0,2.01E2,5.2E1,4.6E2,9E0,2.3E1],"tree_param":{"num_deleted":"0","num_feature":"15","num_nodes":"125","size_leaf_vector":"1"}},{"base_weights":[3.2756652E-3,9.5511925E-1,-3.8124463E-1,1.485635E0,1.8925956E-1,1.0833221E-1,-8.740156E-1,2.1678731E0,7.473754E-1,6.443853E-1,-3.454377E-1,8.737409E-1,-3.327103E-1,-6.216121E-1,-1.5115302E0,2.8100162E0,1.9014132E0,1.5078444E0,3.2102317E-1,2.0241876E0,4.6461406E-1,5.5406946E-1,-5.0408226E-1,1.1208358E0,3.1564587E-1,-3.9949253E-2,-6.715944E-1,-1.9688278E-1,-7.97877E-1,-1.1275681E0,-1.6496164E0,2.9921372E0,-3.6670914E-1,1.2895998E0,2.332709E0,1.6857045E0,-7.151426E-1,2.2028432E0,2.2310811E-1,1.3510481E0,3.931018E0,9.984851E-1,6.578178E-2,-4.648703E-1,1.8471137E0,-1.2085829E0,-2.6394796E-1,1.3315157E0,4.266151E-1,-5.7628053E-1,7.3276246E-1,-2.134752E-1,6.405601E-1,-1.0959289E0,-3.6743608E-1,8.015262E-1,-4.2240104E-1,-5.9602547E-1,-1.189523E0,-2.485065E0,-8.9987344E-1,-1.5821112E0,-2.6924813E0,1.6821943E-1,3.6880073E-1,-5.606001E-1,1.6438639E-1,2.3473635E-2,2.173637E-1,3.1362227E-1,1.0427865E-1,2.5064775E-1,1.1480699E-1,-2.0364921E-1,1.0858985E-1,4.2236024E-1,-2.205816E-1,-7.6522775E-2,4.9214173E-2,2.4277575E-1,7.964606E-3,3.6136374E-2,4.608813E-1,4.3928754E-2,1.740363E-1,-3.567494E-2,1.9709025E-1,-3.5353836E-1,4.134683E-2,4.176639E-1,8.385698E-2,-2.7468035E-2,-2.0218952E-1,4.542446E-2,-7.270659E-2,4.7155067E-2,1.5329938E-1,1.0376767E-1,-1.5089794E-1,-2.1183911E-1,-4.3234315E-2,1.06677346E-1,-7.975528E-2,-3.588279E-2,1.739676E-2,-2.1670909E-1,9.823215E-2,-2.2117911E-1,-8.635408E-2,5.623455E-2,-7.172263E-2,2.2069512E-2,3.3168676E-1,4.7773473E-2,-7.180815E-2,-1.2250173E-1,-4.5933932E-2,-2.1152608E-1,-1.0665639E-1,-7.61423E-2,-3.2514012E-1,-1.602938E-1,-4.0864583E-2,-2.3103335E-1,-1.4989343E-1,-2.0739888E-1,-3.9794645E-1],"categories":[],"categories_nodes":[],"categories_segments":[],"categories_sizes":[],"default_left":[0,0,0,0,0,0,0,0,0,0,0,0,0,0,0,0,0,0,0,0,0,0,0,0,0,0,0,0,0,0,0,0,0,0,0,0,0,0,0,0,0,0,0,0,0,0,0,0,0,0,0,0,0,0,0,0,0,0,0,0,0,0,0,0,0,0,0,0,0,0,0,0,0,0,0,0,0,0,0,0,0,0,0,0,0,0,0,0,0,0,0,0,0,0,0,0,0,0,0,0,0,0,0,0,0,0,0,0,0,0,0,0,0,0,0,0,0,0,0,0,0,0,0,0,0,0,0],"id":8,"left_children":[1,3,5,7,9,11,13,15,17,19,21,23,25,27,29,31,33,35,37,39,41,43,45,47,49,51,53,55,57,59,61,63,65,67,69,71,73,75,77,79,81,83,85,87,89,91,93,95,97,99,101,103,105,107,109,111,113,115,117,119,121,123,125,-1,-1,-1,-1,-1,-1,-1,-1,-1,-1,-1,-1,-1,-1,-1,-1,-1,-1,-1,-1,-1,-1,-1,-1,-1,-1,-1,-1,-1,-1,-1,-1,-1,-1,-1,-1,-1,-1,-1,-1,-1,-1,-1,-1,-1,-1,-1,-1,-1,-1,-1,-1,-1,-1,-1,-1,-1,-1,-1,-1,-1,-1,-1,-1],"loss_changes":[2.405371E3,7.680332E2,1.1293823E3,5.609778E2,1.8882231E2,7.9326086E2,3.744657E2,9.389795E1,1.7395044E2,1.0299194E2,5.1223885E1,1.1810443E2,1.4789833E2,1.2509192E2,3.3186157E1,9.8293335E1,1.0597119E2,7.751395E1,6.326196E1,5.6300003E1,7.91424E1,7.200551E1,5.1110123E1,8.645569E1,9.901215E1,9.4723656E1,8.878116E1,1.11117004E2,9.273328E1,5.278264E1,2.981311E1,1.3873254E2,1.1455529E2,1.6081888E2,2.4651904E2,7.611081E1,3.7908493E1,1.6076675E2,8.812213E1,5.0457077E1,2.736847E1,6.519763E1,1.7296735E2,8.506724E1,5.288388E1,5.793032E1,7.616485E1,7.828546E1,1.6715327E2,1.7951355E1,9.336752E1,3.6048256E1,1.5853488E2,7.277225E1,1.3179564E2,1.3221793E2,1.0733637E2,6.666931E1,4.3388916E1,3.054654E1,5.2531128E1,2.421814E1,1.4034332E1,0E0,0E0,0E0,0E0,0E0,0E0,0E0,0E0,0E0,0E0,0E0,0E0,0E0,0E0,0E0,0E0,0E0,0E0,0E0,0E0,0E0,0E0,0E0,0E0,0E0,0E0,0E0,0E0,0E0,0E0,0E0,0E0,0E0,0E0,0E0,0E0,0E0,0E0,0E0,0E0,0E0,0E0,0E0,0E0,0E0,0E0,0E0,0E0,0E0,0E0,0E0,0E0,0E0,0E0,0E0,0E0,0E0,0E0,0E0,0E0,0E0,0E0,0E0,0E0],"parents":[2147483647,0,0,1,1,2,2,3,3,4,4,5,5,6,6,7,7,8,8,9,9,10,10,11,11,12,12,13,13,14,14,15,15,16,16,17,17,18,18,19,19,20,20,21,21,22,22,23,23,24,24,25,25,26,26,27,27,28,28,29,29,30,30,31,31,32,32,33,33,34,34,35,35,36,36,37,37,38,38,39,39,40,40,41,41,42,42,43,43,44,44,45,45,46,46,47,47,48,48,49,49,50,50,51,51,52,52,53,53,54,54,55,55,56,56,57,57,58,58,59,59,60,60,61,61,62,62],"right_children":[2,4,6,8,10,12,14,16,18,20,22,24,26,28,30,32,34,36,38,40,42,44,46,48,50,52,54,56,58,60,62,64,66,68,70,72,74,76,78,80,82,84,86,88,90,92,94,96,98,100,102,104,106,108,110,112,114,116,118,120,122,124,126,-1,-1,-1,-1,-1,-1,-1,-1,-1,-1,-1,-1,-1,-1,-1,-1,-1,-1,-1,-1,-1,-1,-1,-1,-1,-1,-1,-1,-1,-1,-1,-1,-1,-1,-1,-1,-1,-1,-1,-1,-1,-1,-1,-1,-1,-1,-1,-1,-1,-1,-1,-1,-1,-1,-1,-1,-1,-1,-1,-1,-1,-1,-1,-1],"split_conditions":[-4.3388373E-1,3.546049E-1,1E0,1E0,1E0,-3.546049E-1,6.6312265E-1,-8.2298386E-1,-7.485108E-1,6E0,7E0,4.6472317E-1,6.6312265E-1,-7.485108E-1,-3.546049E-1,4.7E1,2E0,5E-1,2E0,5E0,8.2298386E-1,2E0,1.8E1,3.6E1,1E0,9.749279E-1,4.3388373E-1,1E0,2E0,6E0,4.7E1,1E0,-2.3931566E-1,6.6312265E-1,6.6312265E-1,1E0,2.3E1,-2.3931566E-1,1.2E1,2E0,2E0,6.6312265E-1,4.2E1,1E0,8.660254E-1,1.2E1,3.1E1,7E0,1E0,4E0,9.749279E-1,9.7094184E-1,-2.3931566E-1,1E1,-3.546049E-1,3.9E1,1.2E1,-8.660254E-1,-9.7094184E-1,1E0,-2.2252093E-1,-2.3931566E-1,8.660254E-1,1.6821943E-1,3.6880073E-1,-5.606001E-1,1.6438639E-1,2.3473635E-2,2.173637E-1,3.1362227E-1,1.0427865E-1,2.5064775E-1,1.1480699E-1,-2.0364921E-1,1.0858985E-1,4.2236024E-1,-2.205816E-1,-7.6522775E-2,4.9214173E-2,2.4277575E-1,7.964606E-3,3.6136374E-2,4.608813E-1,4.3928754E-2,1.740363E-1,-3.567494E-2,1.9709025E-1,-3.5353836E-1,4.134683E-2,4.176639E-1,8.385698E-2,-2.7468035E-2,-2.0218952E-1,4.542446E-2,-7.270659E-2,4.7155067E-2,1.5329938E-1,1.0376767E-1,-1.5089794E-1,-2.1183911E-1,-4.3234315E-2,1.06677346E-1,-7.975528E-2,-3.588279E-2,1.739676E-2,-2.1670909E-1,9.823215E-2,-2.2117911E-1,-8.635408E-2,5.623455E-2,-7.172263E-2,2.2069512E-2,3.3168676E-1,4.7773473E-2,-7.180815E-2,-1.2250173E-1,-4.5933932E-2,-2.1152608E-1,-1.0665639E-1,-7.61423E-2,-3.2514012E-1,-1.602938E-1,-4.0864583E-2,-2.3103335E-1,-1.4989343E-1,-2.0739888E-1,-3.9794645E-1],"split_indices":[9,14,3,3,3,14,14,14,14,0,0,13,14,14,13,0,6,11,0,0,14,2,0,0,2,9,9,6,2,0,0,1,13,13,13,2,0,14,0,2,6,14,0,0,12,0,0,0,10,0,9,13,14,0,13,0,0,11,13,2,10,13,11,0,0,0,0,0,0,0,0,0,0,0,0,0,0,0,0,0,0,0,0,0,0,0,0,0,0,0,0,0,0,0,0,0,0,0,0,0,0,0,0,0,0,0,0,0,0,0,0,0,0,0,0,0,0,0,0,0,0,0,0,0,0,0,0],"split_type":[0,0,0,0,0,0,0,0,0,0,0,0,0,0,0,0,0,0,0,0,0,0,0,0,0,0,0,0,0,0,0,0,0,0,0,0,0,0,0,0,0,0,0,0,0,0,0,0,0,0,0,0,0,0,0,0,0,0,0,0,0,0,0,0,0,0,0,0,0,0,0,0,0,0,0,0,0,0,0,0,0,0,0,0,0,0,0,0,0,0,0,0,0,0,0,0,0,0,0,0,0,0,0,0,0,0,0,0,0,0,0,0,0,0,0,0,0,0,0,0,0,0,0,0,0,0,0],"sum_hessian":[6.57E3,1.89E3,4.68E3,1.116E3,7.74E2,2.348E3,2.332E3,5.79E2,5.37E2,4.18E2,3.56E2,8.58E2,1.49E3,1.672E3,6.6E2,1.67E2,4.12E2,1.92E2,3.45E2,4.7E1,3.71E2,5.3E1,3.03E2,5.94E2,2.64E2,8E2,6.9E2,4.91E2,1.181E3,1.77E2,4.83E2,1.58E2,9E0,1.72E2,2.4E2,1.78E2,1.4E1,1.6E1,3.29E2,3.6E1,1.1E1,1.58E2,2.13E2,3E1,2.3E1,7.6E1,2.27E2,4.55E2,1.39E2,8.4E1,1.8E2,6.38E2,1.62E2,2.87E2,4.03E2,9E1,4.01E2,7.81E2,4E2,2.4E1,1.53E2,4.56E2,2.7E1,5.6E1,1.02E2,2E0,7E0,7.9E1,9.3E1,1.47E2,9.3E1,6.9E1,1.09E2,8E0,6E0,1.1E1,5E0,7E1,2.59E2,1.9E1,1.7E1,2E0,9E0,9.1E1,6.7E1,1.75E2,3.8E1,6E0,2.4E1,6E0,1.7E1,3.6E1,4E1,8.9E1,1.38E2,8.7E1,3.68E2,1.06E2,3.3E1,6E0,7.8E1,1.48E2,3.2E1,4.64E2,1.74E2,1.7E1,1.45E2,4.8E1,2.39E2,1.1E2,2.93E2,7.4E1,1.6E1,9.9E1,3.02E2,1.38E2,6.43E2,4.5E1,3.55E2,8E0,1.6E1,6.2E1,9.1E1,4.4E1,4.12E2,2E1,7E0],"tree_param":{"num_deleted":"0","num_feature":"15","num_nodes":"127","size_leaf_vector":"1"}},{"base_weights":[2.9516257E-3,8.608256E-1,-3.4360737E-1,1.3613901E0,1.7943391E-1,9.72714E-2,-7.8736246E-1,1.9686546E0,7.112929E-1,7.1777743E-1,-2.411345E-1,6.505525E-1,-4.1092333E-1,-4.8600638E-1,-1.2398452E0,2.3780766E0,1.5522517E0,2.2686887E0,5.3274417E-1,-3.812E-1,1.2665501E0,1.391762E-1,-7.0229095E-1,8.5168827E-1,-1.5777586E-1,-5.1590186E-1,4.928058E-1,-1.1130294E0,-3.843876E-1,-8.288183E-1,-1.4317335E0,1.254154E-1,2.6967719E0,8.378583E-1,2.3930604E0,3.2333953E0,-2.2993603E0,-2.447999E-1,8.390072E-1,5.089751E-1,-1.2213467E0,2.642065E0,9.5352566E-1,9.6930426E-1,-3.2345238E-1,-5.5188537E-1,-1.3662328E0,1.1342602E0,2.874671E-1,4.5017135E-1,-9.793942E-1,-1.509528E-1,-7.624995E-1,6.9368154E-1,-1.7068435E0,-1.6061517E0,5.0882533E-2,-1.5836455E-1,-7.5547063E-1,-1.0606642E-1,-1.1860502E0,-1.5240643E0,-1.0584686E0,1.8334894E-1,-1.3327183E-1,1.2962155E-1,3.254404E-1,1.3314064E-1,-7.588044E-2,4.860712E-2,2.6397166E-1,1.6399379E-1,4.5593402E-1,-3.0260088E-4,-4.5950896E-1,1.0321349E-1,-1.1088321E-1,1.9114725E-1,5.0833464E-2,8.680186E-2,-4.5551166E-1,-2.9392713E-1,-4.338605E-2,4.7104812E-1,1.3657536E-1,2.9528866E-2,2.0080517E-1,-2.0704328E-1,1.613446E-1,4.9655225E-2,-1.3075203E-1,-7.7206716E-2,1.4492625E-1,-1.7533907E-1,-5.1660355E-2,4.1772503E-2,1.4678554E-1,4.89587E-2,-1.876944E-1,-3.391833E-1,6.3098624E-2,6.540006E-2,-1.9273093E-1,-7.6132715E-2,2.565288E-2,-7.028287E-2,-1.9822143E-1,1.370439E-1,8.110862E-3,-4.7095224E-1,1.580309E-1,-1.9473025E-1,-6.6611946E-2,1.6150127E-1,-1.2304022E-1,5.5179005E-3,-5.848207E-2,-9.463005E-2,9.082339E-3,4.2256217E-2,-1.3536185E-1,-1.653699E-1,-4.785948E-2,-1.8256763E-1,-1.3646576E-1,-2.4086276E-2,-1.4100882E-1],"categories":[],"categories_nodes":[],"categories_segments":[],"categories_sizes":[],"default_left":[0,0,0,0,0,0,0,0,0,0,0,0,0,0,0,0,0,0,0,0,0,0,0,0,0,0,0,0,0,0,0,0,0,0,0,0,0,0,0,0,0,0,0,0,0,0,0,0,0,0,0,0,0,0,0,0,0,0,0,0,0,0,0,0,0,0,0,0,0,0,0,0,0,0,0,0,0,0,0,0,0,0,0,0,0,0,0,0,0,0,0,0,0,0,0,0,0,0,0,0,0,0,0,0,0,0,0,0,0,0,0,0,0,0,0,0,0,0,0,0,0,0,0,0,0,0,0],"id":9,"left_children":[1,3,5,7,9,11,13,15,17,19,21,23,25,27,29,31,33,35,37,39,41,43,45,47,49,51,53,55,57,59,61,63,65,67,69,71,73,75,77,79,81,83,85,87,89,91,93,95,97,99,101,103,105,107,109,111,113,115,117,119,121,123,125,-1,-1,-1,-1,-1,-1,-1,-1,-1,-1,-1,-1,-1,-1,-1,-1,-1,-1,-1,-1,-1,-1,-1,-1,-1,-1,-1,-1,-1,-1,-1,-1,-1,-1,-1,-1,-1,-1,-1,-1,-1,-1,-1,-1,-1,-1,-1,-1,-1,-1,-1,-1,-1,-1,-1,-1,-1,-1,-1,-1,-1,-1,-1,-1],"loss_changes":[1.95388E3,6.44739E2,9.1587775E2,4.28911E2,1.8175412E2,6.6074634E2,3.175216E2,9.229126E1,1.4561292E2,2.1277E2,7.919536E1,1.830411E2,1.1647266E2,8.890384E1,7.232141E1,2.0211304E2,1.6738342E2,2.4540341E2,1.1331859E2,8.8871216E1,9.866461E1,9.555567E1,1.9617546E1,1.4332312E2,1.1282853E2,9.870001E1,5.7741592E1,1.1200214E2,1.01199326E2,7.7073E1,2.0236938E1,9.2105125E1,1.886875E2,1.2236686E2,5.9394592E1,8.760062E1,5.2703712E1,1.5009169E2,1.1995883E2,1.0941122E2,8.124812E1,1.070842E2,1.3337375E2,1.7760442E2,1.2975969E2,7.514246E1,1.1264999E1,1.4280646E2,1.3303503E2,9.245008E1,1.4989917E2,1.10625336E2,4.6278656E1,4.880731E1,1.1601538E2,4.2637787E1,1.2022879E2,6.8514626E1,7.3890564E1,6.652116E1,6.537668E1,2.1836548E1,3.674608E1,0E0,0E0,0E0,0E0,0E0,0E0,0E0,0E0,0E0,0E0,0E0,0E0,0E0,0E0,0E0,0E0,0E0,0E0,0E0,0E0,0E0,0E0,0E0,0E0,0E0,0E0,0E0,0E0,0E0,0E0,0E0,0E0,0E0,0E0,0E0,0E0,0E0,0E0,0E0,0E0,0E0,0E0,0E0,0E0,0E0,0E0,0E0,0E0,0E0,0E0,0E0,0E0,0E0,0E0,0E0,0E0,0E0,0E0,0E0,0E0,0E0,0E0,0E0,0E0],"parents":[2147483647,0,0,1,1,2,2,3,3,4,4,5,5,6,6,7,7,8,8,9,9,10,10,11,11,12,12,13,13,14,14,15,15,16,16,17,17,18,18,19,19,20,20,21,21,22,22,23,23,24,24,25,25,26,26,27,27,28,28,29,29,30,30,31,31,32,32,33,33,34,34,35,35,36,36,37,37,38,38,39,39,40,40,41,41,42,42,43,43,44,44,45,45,46,46,47,47,48,48,49,49,50,50,51,51,52,52,53,53,54,54,55,55,56,56,57,57,58,58,59,59,60,60,61,61,62,62],"right_children":[2,4,6,8,10,12,14,16,18,20,22,24,26,28,30,32,34,36,38,40,42,44,46,48,50,52,54,56,58,60,62,64,66,68,70,72,74,76,78,80,82,84,86,88,90,92,94,96,98,100,102,104,106,108,110,112,114,116,118,120,122,124,126,-1,-1,-1,-1,-1,-1,-1,-1,-1,-1,-1,-1,-1,-1,-1,-1,-1,-1,-1,-1,-1,-1,-1,-1,-1,-1,-1,-1,-1,-1,-1,-1,-1,-1,-1,-1,-1,-1,-1,-1,-1,-1,-1,-1,-1,-1,-1,-1,-1,-1,-1,-1,-1,-1,-1,-1,-1,-1,-1,-1,-1,-1,-1,-1],"split_conditions":[-4.3388373E-1,5E-1,1E0,1E0,-3.546049E-1,-1.8369701E-16,3.546049E-1,3.546049E-1,-9.7094184E-1,1E0,1E0,8.2298386E-1,9.7094184E-1,-8.660254E-1,-2.4492937E-16,6E0,-7.818315E-1,3.8E1,1.4E1,-7.818315E-1,-9.7094184E-1,1E0,7.485108E-1,2E0,2.8E1,-2.4492937E-16,4.7E1,3.6E1,6.6312265E-1,1E0,9.749279E-1,1E0,1E0,3.9E1,4E0,-7.818315E-1,2E0,2E0,2.2E1,4.9E1,-9.350162E-1,1.5E1,3.1E1,-1.2053668E-1,-7.818315E-1,6.6312265E-1,3.6E1,1E0,4.5E1,1E0,1E0,4.3388373E-1,4E1,2E0,4.3388373E-1,7.818315E-1,4.2E1,2E0,1E0,-5.6806475E-1,7.818315E-1,1E0,1.7E1,1.8334894E-1,-1.3327183E-1,1.2962155E-1,3.254404E-1,1.3314064E-1,-7.588044E-2,4.860712E-2,2.6397166E-1,1.6399379E-1,4.5593402E-1,-3.0260088E-4,-4.5950896E-1,1.0321349E-1,-1.1088321E-1,1.9114725E-1,5.0833464E-2,8.680186E-2,-4.5551166E-1,-2.9392713E-1,-4.338605E-2,4.7104812E-1,1.3657536E-1,2.9528866E-2,2.0080517E-1,-2.0704328E-1,1.613446E-1,4.9655225E-2,-1.3075203E-1,-7.7206716E-2,1.4492625E-1,-1.7533907E-1,-5.1660355E-2,4.1772503E-2,1.4678554E-1,4.89587E-2,-1.876944E-1,-3.391833E-1,6.3098624E-2,6.540006E-2,-1.9273093E-1,-7.6132715E-2,2.565288E-2,-7.028287E-2,-1.9822143E-1,1.370439E-1,8.110862E-3,-4.7095224E-1,1.580309E-1,-1.9473025E-1,-6.6611946E-2,1.6150127E-1,-1.2304022E-1,5.5179005E-3,-5.848207E-2,-9.463005E-2,9.082339E-3,4.2256217E-2,-1.3536185E-1,-1.653699E-1,-4.785948E-2,-1.8256763E-1,-1.3646576E-1,-2.4086276E-2,-1.4100882E-1],"split_indices":[9,12,3,3,13,14,14,13,14,2,3,13,13,11,11,0,9,0,0,9,13,1,13,1,0,11,0,0,13,2,9,2,2,0,0,9,1,6,0,0,13,0,0,13,9,13,0,2,0,6,2,9,8,6,9,9,0,1,10,13,9,2,0,0,0,0,0,0,0,0,0,0,0,0,0,0,0,0,0,0,0,0,0,0,0,0,0,0,0,0,0,0,0,0,0,0,0,0,0,0,0,0,0,0,0,0,0,0,0,0,0,0,0,0,0,0,0,0,0,0,0,0,0,0,0,0,0],"split_type":[0,0,0,0,0,0,0,0,0,0,0,0,0,0,0,0,0,0,0,0,0,0,0,0,0,0,0,0,0,0,0,0,0,0,0,0,0,0,0,0,0,0,0,0,0,0,0,0,0,0,0,0,0,0,0,0,0,0,0,0,0,0,0,0,0,0,0,0,0,0,0,0,0,0,0,0,0,0,0,0,0,0,0,0,0,0,0,0,0,0,0,0,0,0,0,0,0,0,0,0,0,0,0,0,0,0,0,0,0,0,0,0,0,0,0,0,0,0,0,0,0,0,0,0,0,0,0],"sum_hessian":[6.57E3,1.89E3,4.68E3,1.089E3,8.01E2,2.348E3,2.332E3,5.62E2,5.27E2,3.51E2,4.5E2,1.124E3,1.224E3,1.401E3,9.31E2,2.81E2,2.81E2,5.3E1,4.74E2,1.17E2,2.34E2,2.47E2,2.03E2,9E2,2.24E2,1.097E3,1.27E2,1.94E2,1.207E3,2.98E2,6.33E2,3.5E1,2.46E2,1.53E2,1.28E2,4.4E1,9E0,1.34E2,3.4E2,5.7E1,6E1,4.2E1,1.92E2,8.8E1,1.59E2,1.67E2,3.6E1,5.99E2,3.01E2,1.29E2,9.5E1,4.43E2,6.54E2,1.17E2,1E1,1.36E2,5.8E1,7.51E2,4.56E2,9.9E1,1.99E2,5.05E2,1.28E2,1.6E1,1.9E1,7.1E1,1.75E2,1.17E2,3.6E1,1.5E1,1.13E2,2.1E1,2.3E1,5E0,4E0,5.4E1,8E1,7.9E1,2.61E2,5.4E1,3E0,1.8E1,4.2E1,1.5E1,2.7E1,1.19E2,7.3E1,1.5E1,7.3E1,8.7E1,7.2E1,1.51E2,1.6E1,2.4E1,1.2E1,1.91E2,4.08E2,2.76E2,2.5E1,5E0,1.24E2,3.5E1,6E1,1.77E2,2.66E2,6.25E2,2.9E1,5.5E1,6.2E1,5E0,5E0,9.9E1,3.7E1,2.6E1,3.2E1,5.01E2,2.5E2,3.72E2,8.4E1,7E1,2.9E1,1.19E2,8E1,1.71E2,3.34E2,3.9E1,8.9E1],"tree_param":{"num_deleted":"0","num_feature":"15","num_nodes":"127","size_leaf_vector":"1"}},{"base_weights":[2.522985E-3,7.7533287E-1,-3.0967227E-1,1.2264158E0,1.6129842E-1,8.718644E-2,-7.0912E-1,1.7733434E0,6.4091057E-1,5.686215E-1,-3.2304534E-1,5.851828E-1,-3.7022832E-1,-4.376635E-1,-1.1167089E0,4.1198497E0,1.7060012E0,2.044785E0,4.7996292E-1,1.3068062E0,1.3169588E-1,6.4282164E-2,-6.328427E-1,7.6657456E-1,-1.4379142E-1,-4.646021E-1,4.422145E-1,-1.0028695E0,-3.4606346E-1,-7.550923E-1,-1.293989E0,6.3077674E0,-2.1332137E-1,1.8429494E0,5.14888E-1,2.9238322E0,-2.1154056E0,3.2081205E-1,1.7968091E0,2.482045E0,1.5830138E-1,8.0748147E-1,-2.4702993E-1,-5.854305E-1,5.1908815E-1,-3.7358934E-1,-1.0140052E0,1.0211482E0,2.5826094E-1,4.0303022E-1,-8.827812E-1,-1.4582008E-1,-6.9421643E-1,1.078542E0,-1.5322617E-1,-2.1198642E0,-5.7103443E-1,-1.6041076E-1,-7.2634023E-1,-1.00214764E-1,-1.0820446E0,-2.0063567E0,-1.2338241E0,8.938565E-1,3.064142E-1,-3.690777E-1,2.4481009E-1,1.25409E-1,2.1998762E-1,4.93453E-1,-5.0867345E-2,1.4833984E-1,4.1224036E-1,-2.7740796E-4,-4.2274824E-1,-2.2037692E-2,5.7077665E-2,3.9703766E-1,1.4296605E-2,2.762945E-1,-5.648701E-1,-8.585987E-2,1.5774386E-1,-1.0644686E-1,1.4542818E-1,3.7609216E-2,-9.735262E-2,8.110457E-2,-2.005761E-1,2.4800846E-2,3.1420884E-1,-6.426079E-2,1.1327546E-1,-4.5251265E-1,-7.759333E-2,3.7616976E-2,1.3214287E-1,6.478547E-2,-7.6054014E-2,-3.1091806E-1,5.683921E-2,5.9041716E-2,-1.737738E-1,-7.4627936E-2,2.7791992E-2,-7.820346E-2,1.8106636E-3,-3.992875E-2,2.569252E-1,1.484159E-1,-2.6339507E-1,-2.5218403E-1,1.7022153E-2,-9.979432E-2,4.64463E-3,2.9698143E-2,-4.6407547E-2,-6.0682237E-2,-2.4038322E-1,3.8090095E-2,-1.10195E-1,-1.4917758E-1,-4.3132644E-2,-9.237778E-2,-2.3511331E-1,-7.1789496E-2,-1.3200998E-1],"categories":[],"categories_nodes":[],"categories_segments":[],"categories_sizes":[],"default_left":[0,0,0,0,0,0,0,0,0,0,0,0,0,0,0,0,0,0,0,0,0,0,0,0,0,0,0,0,0,0,0,0,0,0,0,0,0,0,0,0,0,0,0,0,0,0,0,0,0,0,0,0,0,0,0,0,0,0,0,0,0,0,0,0,0,0,0,0,0,0,0,0,0,0,0,0,0,0,0,0,0,0,0,0,0,0,0,0,0,0,0,0,0,0,0,0,0,0,0,0,0,0,0,0,0,0,0,0,0,0,0,0,0,0,0,0,0,0,0,0,0,0,0,0,0,0,0],"id":10,"left_children":[1,3,5,7,9,11,13,15,17,19,21,23,25,27,29,31,33,35,37,39,41,43,45,47,49,51,53,55,57,59,61,63,65,67,69,71,73,75,77,79,81,83,85,87,89,91,93,95,97,99,101,103,105,107,109,111,113,115,117,119,121,123,125,-1,-1,-1,-1,-1,-1,-1,-1,-1,-1,-1,-1,-1,-1,-1,-1,-1,-1,-1,-1,-1,-1,-1,-1,-1,-1,-1,-1,-1,-1,-1,-1,-1,-1,-1,-1,-1,-1,-1,-1,-1,-1,-1,-1,-1,-1,-1,-1,-1,-1,-1,-1,-1,-1,-1,-1,-1,-1,-1,-1,-1,-1,-1,-1],"loss_changes":[1.5856095E3,5.23572E2,7.4211395E2,3.479131E2,1.5840578E2,5.3529736E2,2.5764062E2,8.193628E1,1.1832036E2,1.4045177E2,4.407813E1,1.4886893E2,9.4130264E1,7.2238525E1,5.8770996E1,1.4355492E2,8.860449E1,2.0366331E2,9.897273E1,2.1826941E2,7.058227E1,4.876477E1,1.9779984E1,1.1632855E2,9.12773E1,8.026895E1,4.8663857E1,9.28492E1,8.516757E1,6.6052704E1,2.4268799E1,5.7944183E1,6.456526E1,1.00649414E2,2.64889E2,7.157562E1,4.4608673E1,5.761897E1,1.8276407E2,1.9832117E2,1.2113341E2,1.2141505E2,8.049329E1,1.3650188E2,6.81918E1,5.0571747E1,6.503256E1,1.1570758E2,1.20362114E2,7.7269394E1,1.21939995E2,1.1750361E2,3.9924194E1,1.376128E2,2.760566E2,5.013951E1,3.7478672E1,1.1305853E2,7.793544E1,5.0542595E1,5.4280167E1,1.5370712E1,2.4780273E1,0E0,0E0,0E0,0E0,0E0,0E0,0E0,0E0,0E0,0E0,0E0,0E0,0E0,0E0,0E0,0E0,0E0,0E0,0E0,0E0,0E0,0E0,0E0,0E0,0E0,0E0,0E0,0E0,0E0,0E0,0E0,0E0,0E0,0E0,0E0,0E0,0E0,0E0,0E0,0E0,0E0,0E0,0E0,0E0,0E0,0E0,0E0,0E0,0E0,0E0,0E0,0E0,0E0,0E0,0E0,0E0,0E0,0E0,0E0,0E0,0E0,0E0,0E0,0E0],"parents":[2147483647,0,0,1,1,2,2,3,3,4,4,5,5,6,6,7,7,8,8,9,9,10,10,11,11,12,12,13,13,14,14,15,15,16,16,17,17,18,18,19,19,20,20,21,21,22,22,23,23,24,24,25,25,26,26,27,27,28,28,29,29,30,30,31,31,32,32,33,33,34,34,35,35,36,36,37,37,38,38,39,39,40,40,41,41,42,42,43,43,44,44,45,45,46,46,47,47,48,48,49,49,50,50,51,51,52,52,53,53,54,54,55,55,56,56,57,57,58,58,59,59,60,60,61,61,62,62],"right_children":[2,4,6,8,10,12,14,16,18,20,22,24,26,28,30,32,34,36,38,40,42,44,46,48,50,52,54,56,58,60,62,64,66,68,70,72,74,76,78,80,82,84,86,88,90,92,94,96,98,100,102,104,106,108,110,112,114,116,118,120,122,124,126,-1,-1,-1,-1,-1,-1,-1,-1,-1,-1,-1,-1,-1,-1,-1,-1,-1,-1,-1,-1,-1,-1,-1,-1,-1,-1,-1,-1,-1,-1,-1,-1,-1,-1,-1,-1,-1,-1,-1,-1,-1,-1,-1,-1,-1,-1,-1,-1,-1,-1,-1,-1,-1,-1,-1,-1,-1,-1,-1,-1,-1,-1,-1,-1],"split_conditions":[-4.3388373E-1,5E-1,1E0,1E0,1E0,-1.8369701E-16,3.546049E-1,-9.9270886E-1,-9.7094184E-1,-2.4492937E-16,-3.546049E-1,8.2298386E-1,9.7094184E-1,-8.660254E-1,-3.546049E-1,-7.818315E-1,4.5E1,3.8E1,4.5E1,-7.818315E-1,1E0,1E0,3.1E1,2E0,2.8E1,-3.546049E-1,2E0,1.5E1,2E0,1E0,-2.3931566E-1,2E0,2E0,1.8E1,1E0,-7.818315E-1,2E0,1.4E1,2E0,4.9E1,3.1E1,-1.2053668E-1,-7.818315E-1,2.8E1,4.4E1,2.7E1,3.3E1,1E0,2.3931566E-1,1E0,1E0,4.3388373E-1,4.5E1,2.9E1,3.1E1,-8.85456E-1,3.6E1,-2.4492937E-16,2.3931566E-1,-5.6806475E-1,7.818315E-1,1.3E1,-3.2162452E-16,8.938565E-1,3.064142E-1,-3.690777E-1,2.4481009E-1,1.25409E-1,2.1998762E-1,4.93453E-1,-5.0867345E-2,1.4833984E-1,4.1224036E-1,-2.7740796E-4,-4.2274824E-1,-2.2037692E-2,5.7077665E-2,3.9703766E-1,1.4296605E-2,2.762945E-1,-5.648701E-1,-8.585987E-2,1.5774386E-1,-1.0644686E-1,1.4542818E-1,3.7609216E-2,-9.735262E-2,8.110457E-2,-2.005761E-1,2.4800846E-2,3.1420884E-1,-6.426079E-2,1.1327546E-1,-4.5251265E-1,-7.759333E-2,3.7616976E-2,1.3214287E-1,6.478547E-2,-7.6054014E-2,-3.1091806E-1,5.683921E-2,5.9041716E-2,-1.737738E-1,-7.4627936E-2,2.7791992E-2,-7.820346E-2,1.8106636E-3,-3.992875E-2,2.569252E-1,1.484159E-1,-2.6339507E-1,-2.5218403E-1,1.7022153E-2,-9.979432E-2,4.64463E-3,2.9698143E-2,-4.6407547E-2,-6.0682237E-2,-2.4038322E-1,3.8090095E-2,-1.10195E-1,-1.4917758E-1,-4.3132644E-2,-9.237778E-2,-2.3511331E-1,-7.1789496E-2,-1.3200998E-1],"split_indices":[9,12,3,3,3,14,14,14,14,11,13,13,13,11,13,9,0,0,0,9,1,2,0,1,0,13,6,0,1,2,13,6,6,0,6,9,1,0,6,0,0,13,9,0,0,0,0,2,13,6,2,9,0,0,0,13,0,11,14,13,9,0,13,0,0,0,0,0,0,0,0,0,0,0,0,0,0,0,0,0,0,0,0,0,0,0,0,0,0,0,0,0,0,0,0,0,0,0,0,0,0,0,0,0,0,0,0,0,0,0,0,0,0,0,0,0,0,0,0,0,0,0,0,0,0,0,0],"split_type":[0,0,0,0,0,0,0,0,0,0,0,0,0,0,0,0,0,0,0,0,0,0,0,0,0,0,0,0,0,0,0,0,0,0,0,0,0,0,0,0,0,0,0,0,0,0,0,0,0,0,0,0,0,0,0,0,0,0,0,0,0,0,0,0,0,0,0,0,0,0,0,0,0,0,0,0,0,0,0,0,0,0,0,0,0,0,0,0,0,0,0,0,0,0,0,0,0,0,0,0,0,0,0,0,0,0,0,0,0,0,0,0,0,0,0,0,0,0,0,0,0,0,0,0,0,0,0],"sum_hessian":[6.57E3,1.89E3,4.68E3,1.089E3,8.01E2,2.348E3,2.332E3,5.62E2,5.27E2,4.35E2,3.66E2,1.124E3,1.224E3,1.401E3,9.31E2,1.4E1,5.48E2,5.3E1,4.74E2,1.61E2,2.74E2,1.63E2,2.03E2,9E2,2.24E2,1.097E3,1.27E2,1.94E2,1.207E3,3.08E2,6.23E2,9E0,5E0,4.91E2,5.7E1,4.4E1,9E0,4.24E2,5E1,7.9E1,8.2E1,9.8E1,1.76E2,6.7E1,9.6E1,1.22E2,8.1E1,5.99E2,3.01E2,1.29E2,9.5E1,4.6E2,6.37E2,6.1E1,6.6E1,5.3E1,1.41E2,8.12E2,3.95E2,1.03E2,2.05E2,4.6E1,5.77E2,4E0,5E0,2E0,3E0,1.87E2,3.04E2,1E1,4.7E1,2.1E1,2.3E1,5E0,4E0,1.34E2,2.9E2,2.1E1,2.9E1,7.7E1,2E0,4.8E1,3.4E1,2.5E1,7.3E1,9.5E1,8.1E1,3.4E1,3.3E1,8.8E1,8E0,1.04E2,1.8E1,4E0,7.7E1,1.91E2,4.08E2,2.18E2,8.3E1,5E0,1.24E2,3.5E1,6E1,1.9E2,2.7E2,5.67E2,7E1,3.1E1,3E1,4E1,2.6E1,4.5E1,8E0,8.3E1,5.8E1,3.24E2,4.88E2,3.7E2,2.5E1,7E1,3.3E1,1.25E2,8E1,1.2E1,3.4E1,8.4E1,4.93E2],"tree_param":{"num_deleted":"0","num_feature":"15","num_nodes":"127","size_leaf_vector":"1"}},{"base_weights":[2.312305E-3,6.988302E-1,-2.7906296E-1,1.1060199E0,1.4454634E-1,1.9377837E-1,-5.5127853E-1,1.5993197E0,5.779255E-1,5.1121485E-1,-2.9145366E-1,6.430621E-1,-2.5889283E-1,-2.470162E-1,-8.5722303E-1,1.966048E0,1.22692E0,9.600667E-1,5.0960924E-2,1.1747881E0,1.184509E-1,5.9192378E-2,-5.719169E-1,2.0091414E0,5.5794233E-1,-1.7146401E-2,-5.2376205E-1,-3.4733605E-1,3.341378E-1,-6.488815E-1,-1.1146984E0,-1.8691831E0,2.1139212E0,5.827836E-1,1.9863781E0,5.366555E-1,1.8269271E0,-9.2404015E-2,2.045115E0,2.230233E0,1.433377E-1,7.2712696E-1,-2.2266424E-1,5.3248847E-1,-4.5679063E-1,2.567569E-1,-6.7863655E-1,-7.2078335E-1,3.3150115E0,-4.2781375E-2,7.024391E-1,-4.6611297E-1,2.7890247E-1,2.5775865E-2,-8.412307E-1,-1.1155031E-2,-6.264228E-1,5.1116914E-1,-2.3072636E0,-9.7098017E-1,-4.8487392E-1,-9.0665525E-1,-1.2587425E0,-5.01462E-1,6.445837E-2,2.2883423E-1,-4.7448486E-2,1.0173386E-1,-8.188457E-2,3.7922865E-1,1.7154929E-1,2.1552801E-1,2.06086E-2,1.11353174E-1,3.3080944E-1,2.6065448E-2,-1.3491255E-1,5.36218E-1,1.122322E-1,2.4901925E-1,-5.2721214E-1,-7.7449076E-2,1.4242022E-1,-9.621156E-2,1.3108186E-1,3.388748E-2,-8.773603E-2,9.626711E-3,2.9746342E-1,-1.6607149E-1,6.433501E-2,-7.208913E-2,1.6975534E-1,-1.2476188E-1,-4.9230423E-2,-1.3274561E-1,4.4929907E-1,4.4251958E-1,2.080494E-2,2.627976E-2,-1.6042899E-1,8.555599E-2,-2.2877824E-2,-6.785659E-2,9.951374E-2,1.5662675E-1,8.0502285E-3,6.365385E-2,-1.0718121E-1,-1.1400395E-1,3.0871436E-2,-1.3452582E-2,2.2469023E-1,-5.67244E-2,-1.6939673E-1,1.379166E-1,1.8801788E-2,-4.527712E-1,1.4079525E-1,-1.2675683E-1,2.43811E-2,-2.2134973E-2,-9.979058E-2,-9.8136604E-2,9.688273E-2,-3.358434E-1,-1.17699735E-1],"categories":[],"categories_nodes":[],"categories_segments":[],"categories_sizes":[],"default_left":[0,0,0,0,0,0,0,0,0,0,0,0,0,0,0,0,0,0,0,0,0,0,0,0,0,0,0,0,0,0,0,0,0,0,0,0,0,0,0,0,0,0,0,0,0,0,0,0,0,0,0,0,0,0,0,0,0,0,0,0,0,0,0,0,0,0,0,0,0,0,0,0,0,0,0,0,0,0,0,0,0,0,0,0,0,0,0,0,0,0,0,0,0,0,0,0,0,0,0,0,0,0,0,0,0,0,0,0,0,0,0,0,0,0,0,0,0,0,0,0,0,0,0,0,0,0,0],"id":11,"left_children":[1,3,5,7,9,11,13,15,17,19,21,23,25,27,29,31,33,35,37,39,41,43,45,47,49,51,53,55,57,59,61,63,65,67,69,71,73,75,77,79,81,83,85,87,89,91,93,95,97,99,101,103,105,107,109,111,113,115,117,119,121,123,125,-1,-1,-1,-1,-1,-1,-1,-1,-1,-1,-1,-1,-1,-1,-1,-1,-1,-1,-1,-1,-1,-1,-1,-1,-1,-1,-1,-1,-1,-1,-1,-1,-1,-1,-1,-1,-1,-1,-1,-1,-1,-1,-1,-1,-1,-1,-1,-1,-1,-1,-1,-1,-1,-1,-1,-1,-1,-1,-1,-1,-1,-1,-1,-1],"loss_changes":[1.2879985E3,4.266364E2,6.026206E2,2.8303027E2,1.2836272E2,3.4814597E2,2.7635083E2,7.447644E1,1.0627701E2,1.1349449E2,3.6125854E1,9.8763855E1,5.4609623E1,8.704329E1,7.872168E1,1.6388135E2,1.367952E2,1.1133334E2,6.3942844E1,1.7603984E2,5.7259773E1,4.0294125E1,1.8215141E1,1.8063576E2,7.0340195E1,5.9543476E1,7.102733E1,1.1933673E2,1.0405377E2,4.289984E1,1.8667175E1,9.020819E1,1.2388635E2,9.4632164E1,5.6600433E1,1.1031488E2,1.0198212E2,9.308417E1,3.9896366E1,1.6915323E2,9.867897E1,9.887484E1,6.536914E1,9.133083E1,1.0570283E2,3.5029957E1,1.857537E1,5.9736176E1,1.1635559E2,7.5813545E1,9.330621E1,5.5934803E1,6.883554E1,1.0123708E2,8.900429E1,1.6132051E2,4.294644E1,5.7802994E1,1.2186702E2,9.974979E1,7.359631E1,3.9343353E1,6.264325E1,0E0,0E0,0E0,0E0,0E0,0E0,0E0,0E0,0E0,0E0,0E0,0E0,0E0,0E0,0E0,0E0,0E0,0E0,0E0,0E0,0E0,0E0,0E0,0E0,0E0,0E0,0E0,0E0,0E0,0E0,0E0,0E0,0E0,0E0,0E0,0E0,0E0,0E0,0E0,0E0,0E0,0E0,0E0,0E0,0E0,0E0,0E0,0E0,0E0,0E0,0E0,0E0,0E0,0E0,0E0,0E0,0E0,0E0,0E0,0E0,0E0,0E0,0E0,0E0],"parents":[2147483647,0,0,1,1,2,2,3,3,4,4,5,5,6,6,7,7,8,8,9,9,10,10,11,11,12,12,13,13,14,14,15,15,16,16,17,17,18,18,19,19,20,20,21,21,22,22,23,23,24,24,25,25,26,26,27,27,28,28,29,29,30,30,31,31,32,32,33,33,34,34,35,35,36,36,37,37,38,38,39,39,40,40,41,41,42,42,43,43,44,44,45,45,46,46,47,47,48,48,49,49,50,50,51,51,52,52,53,53,54,54,55,55,56,56,57,57,58,58,59,59,60,60,61,61,62,62],"right_children":[2,4,6,8,10,12,14,16,18,20,22,24,26,28,30,32,34,36,38,40,42,44,46,48,50,52,54,56,58,60,62,64,66,68,70,72,74,76,78,80,82,84,86,88,90,92,94,96,98,100,102,104,106,108,110,112,114,116,118,120,122,124,126,-1,-1,-1,-1,-1,-1,-1,-1,-1,-1,-1,-1,-1,-1,-1,-1,-1,-1,-1,-1,-1,-1,-1,-1,-1,-1,-1,-1,-1,-1,-1,-1,-1,-1,-1,-1,-1,-1,-1,-1,-1,-1,-1,-1,-1,-1,-1,-1,-1,-1,-1,-1,-1,-1,-1,-1,-1,-1,-1,-1,-1,-1,-1,-1],"split_conditions":[-4.3388373E-1,5E-1,-3.546049E-1,1E0,1E0,1E0,1E0,3.546049E-1,5E-1,-2.4492937E-16,-3.546049E-1,-9.9270886E-1,2.6E1,9.7094184E-1,6.6312265E-1,2E0,-7.818315E-1,2E1,4.6E1,-7.818315E-1,1E0,2.6E1,5E0,1.5E1,1E0,4.3388373E-1,1E0,-2.4492937E-16,4.7E1,1.7E1,2.1E1,-7.485108E-1,4.7E1,3.9E1,1E0,-9.7094184E-1,3.2E1,3.8E1,1E0,4.9E1,3.1E1,-1.2053668E-1,-7.818315E-1,2.2E1,1E0,2E0,1.6E1,1E0,1E0,-6.6312265E-1,8.2298386E-1,2.1E1,-9.7094184E-1,3.546049E-1,4.4E1,3E1,4E1,1.6E1,4.3388373E-1,9.9270886E-1,2E0,2E1,2.2E1,-5.01462E-1,6.445837E-2,2.2883423E-1,-4.7448486E-2,1.0173386E-1,-8.188457E-2,3.7922865E-1,1.7154929E-1,2.1552801E-1,2.06086E-2,1.11353174E-1,3.3080944E-1,2.6065448E-2,-1.3491255E-1,5.36218E-1,1.122322E-1,2.4901925E-1,-5.2721214E-1,-7.7449076E-2,1.4242022E-1,-9.621156E-2,1.3108186E-1,3.388748E-2,-8.773603E-2,9.626711E-3,2.9746342E-1,-1.6607149E-1,6.433501E-2,-7.208913E-2,1.6975534E-1,-1.2476188E-1,-4.9230423E-2,-1.3274561E-1,4.4929907E-1,4.4251958E-1,2.080494E-2,2.627976E-2,-1.6042899E-1,8.555599E-2,-2.2877824E-2,-6.785659E-2,9.951374E-2,1.5662675E-1,8.0502285E-3,6.365385E-2,-1.0718121E-1,-1.1400395E-1,3.0871436E-2,-1.3452582E-2,2.2469023E-1,-5.67244E-2,-1.6939673E-1,1.379166E-1,1.8801788E-2,-4.527712E-1,1.4079525E-1,-1.2675683E-1,2.43811E-2,-2.2134973E-2,-9.979058E-2,-9.8136604E-2,9.688273E-2,-3.358434E-1,-1.17699735E-1],"split_indices":[9,12,14,3,3,3,3,13,11,11,13,14,0,13,14,0,9,8,0,9,1,0,0,0,6,9,2,11,0,0,0,13,0,0,6,14,0,0,6,0,0,13,9,0,2,2,0,10,10,14,13,0,14,13,0,8,8,0,9,13,1,0,0,0,0,0,0,0,0,0,0,0,0,0,0,0,0,0,0,0,0,0,0,0,0,0,0,0,0,0,0,0,0,0,0,0,0,0,0,0,0,0,0,0,0,0,0,0,0,0,0,0,0,0,0,0,0,0,0,0,0,0,0,0,0,0,0],"split_type":[0,0,0,0,0,0,0,0,0,0,0,0,0,0,0,0,0,0,0,0,0,0,0,0,0,0,0,0,0,0,0,0,0,0,0,0,0,0,0,0,0,0,0,0,0,0,0,0,0,0,0,0,0,0,0,0,0,0,0,0,0,0,0,0,0,0,0,0,0,0,0,0,0,0,0,0,0,0,0,0,0,0,0,0,0,0,0,0,0,0,0,0,0,0,0,0,0,0,0,0,0,0,0,0,0,0,0,0,0,0,0,0,0,0,0,0,0,0,0,0,0,0,0,0,0,0,0],"sum_hessian":[6.57E3,1.89E3,4.68E3,1.089E3,8.01E2,1.71E3,2.97E3,5.62E2,5.27E2,4.35E2,3.66E2,8.58E2,8.52E2,1.49E3,1.48E3,2.81E2,2.81E2,3.05E2,2.22E2,1.61E2,2.74E2,1.63E2,2.03E2,4.9E1,8.09E2,4.46E2,4.06E2,1.271E3,2.19E2,8.2E2,6.6E2,1E1,2.71E2,1.53E2,1.28E2,2.06E2,9.9E1,2.08E2,1.4E1,7.9E1,8.2E1,9.8E1,1.76E2,8.5E1,7.8E1,2.3E1,1.8E2,1.6E1,3.3E1,1.57E2,6.52E2,1.77E2,2.69E2,1.49E2,2.57E2,5.77E2,6.94E2,2.06E2,1.3E1,2.75E2,5.45E2,2.73E2,3.87E2,4E0,6E0,2.54E2,1.7E1,1.17E2,3.6E1,1.5E1,1.13E2,3.4E1,1.72E2,6.8E1,3.1E1,1.63E2,4.5E1,2E0,1.2E1,7.7E1,2E0,4.8E1,3.4E1,2.5E1,7.3E1,9.5E1,8.1E1,7.3E1,1.2E1,3.7E1,4.1E1,1.4E1,9E0,4.3E1,1.37E2,1.5E1,1E0,2.4E1,9E0,1.32E2,2.5E1,5.6E2,9.2E1,1.55E2,2.2E1,3.5E1,2.34E2,9.6E1,5.3E1,2.04E2,5.3E1,5.48E2,2.9E1,6.59E2,3.5E1,5.5E1,1.51E2,8E0,5E0,2.21E2,5.4E1,3.61E2,1.84E2,2.63E2,1E1,1.3E1,3.74E2],"tree_param":{"num_deleted":"0","num_feature":"15","num_nodes":"127","size_leaf_vector":"1"}},{"base_weights":[2.28783E-3,6.2970316E-1,-2.5117186E-1,1.3112719E0,3.5630688E-1,1.7485537E-1,-4.9643654E-1,9.294049E-1,2.0656517E0,7.3595226E-1,-8.586673E-2,5.795806E-1,-2.329217E-1,-2.2242865E-1,-7.7195936E-1,4.3985707E-1,1.3979381E0,2.996142E0,1.2819932E0,9.7271955E-1,9.846436E-2,5.2118766E-1,-2.2670639E-1,1.823825E0,5.020599E-1,-2.603394E-1,1.8894464E0,-4.1364446E-1,6.946286E-2,-5.8426666E-1,-1.0039166E0,8.2361543E-1,-2.8149426E0,2.1346304E0,4.8478503E-2,1.066173E0,3.7763674E0,2.0463853E0,-1.902505E-2,1.6986964E0,6.100586E-1,-1.01910494E-1,1.1410936E0,-1.298741E0,8.8358545E-1,-8.7252533E-1,-1.18056186E-1,-6.300841E-1,2.9971378E0,1.5397344E0,4.3030608E-1,1.02656424E-1,-4.5289373E-1,4.6191135E-1,-3.302367E-1,-2.7527072E0,-3.7897465E-1,6.163197E-1,-2.0137908E-1,-5.309445E-1,-1.4510833E0,-1.773931E0,-9.619224E-1,5.928113E-2,6.648786E-1,1.08651355E-1,-3.614373E-1,6.115877E-1,1.6725048E-1,-3.883555E-2,3.2640696E-1,-7.059126E-2,3.3857286E-1,8.3707154E-1,3.281032E-1,1.1956339E-1,4.4707403E-1,2.906972E-1,-1.0273335E-1,2.8331572E-1,9.406502E-2,7.508294E-2,-1.3626894E-1,2.3168253E-2,-1.8402329E-1,4.8242146E-1,1.0559599E-2,-4.2125812E-1,2.5094647E-2,1.4553538E-1,2.2002574E-2,3.228648E-1,-1.03352524E-1,1.6799724E-1,-1.9501671E-2,3.466858E-1,-1.407467E-1,4.0003777E-1,1.8932458E-2,1.0383759E-1,4.6144134E-1,-8.322086E-2,5.557521E-2,-3.9170664E-2,8.186274E-2,-2.5931706E-3,-6.739487E-2,-1.6319437E-1,1.9493538E-1,-4.6114555E-1,1.8440818E-2,-3.313225E-2,-1.9479166E-1,1.3493268E-1,2.1636814E-2,1.22047715E-1,-3.6456652E-2,-3.8101416E-2,-8.115533E-2,-3.1752384E-1,-2.7142698E-2,-2.9653275E-1,-3.2273944E-2,-6.819948E-2,-1.1340373E-1],"categories":[],"categories_nodes":[],"categories_segments":[],"categories_sizes":[],"default_left":[0,0,0,0,0,0,0,0,0,0,0,0,0,0,0,0,0,0,0,0,0,0,0,0,0,0,0,0,0,0,0,0,0,0,0,0,0,0,0,0,0,0,0,0,0,0,0,0,0,0,0,0,0,0,0,0,0,0,0,0,0,0,0,0,0,0,0,0,0,0,0,0,0,0,0,0,0,0,0,0,0,0,0,0,0,0,0,0,0,0,0,0,0,0,0,0,0,0,0,0,0,0,0,0,0,0,0,0,0,0,0,0,0,0,0,0,0,0,0,0,0,0,0,0,0],"id":12,"left_children":[1,3,5,7,9,11,13,15,17,19,21,23,25,27,29,31,33,35,37,39,41,43,45,47,49,51,53,55,57,59,61,63,65,67,69,71,73,75,77,79,81,83,85,87,89,91,93,95,97,99,101,103,105,-1,107,109,111,113,115,117,119,121,123,-1,-1,-1,-1,-1,-1,-1,-1,-1,-1,-1,-1,-1,-1,-1,-1,-1,-1,-1,-1,-1,-1,-1,-1,-1,-1,-1,-1,-1,-1,-1,-1,-1,-1,-1,-1,-1,-1,-1,-1,-1,-1,-1,-1,-1,-1,-1,-1,-1,-1,-1,-1,-1,-1,-1,-1,-1,-1,-1,-1,-1,-1],"loss_changes":[1.0451082E3,3.5189874E2,4.8920184E2,1.5392755E2,2.2685443E2,2.8251447E2,2.2412524E2,8.21875E1,1.2814166E2,1.0963492E2,5.3553986E1,8.1938965E1,5.0128365E1,8.324781E1,6.3891235E1,2.2465051E2,1.8281766E2,1.1945026E2,9.948773E1,1.385039E2,4.1481792E1,7.897305E1,3.554252E1,1.4584857E2,5.9647675E1,5.8969177E1,6.817436E1,7.202327E1,8.765817E1,3.7176605E1,1.9667847E1,2.1117427E2,6.318695E1,2.0871173E2,9.3976456E1,1.05151306E2,1.0452838E2,1.2459363E2,1.1509811E2,1.4869037E2,9.9608505E1,9.726835E1,1.21534195E2,9.1367966E1,3.7240623E1,5.153795E1,6.0660095E1,5.902266E1,9.501758E1,7.536736E1,1.20671005E2,1.0402789E2,5.198703E1,0E0,2.3952751E1,7.1822044E1,6.581932E1,5.7168846E1,9.232845E1,3.2296432E1,9.473195E1,5.6098137E1,2.9531616E1,0E0,0E0,0E0,0E0,0E0,0E0,0E0,0E0,0E0,0E0,0E0,0E0,0E0,0E0,0E0,0E0,0E0,0E0,0E0,0E0,0E0,0E0,0E0,0E0,0E0,0E0,0E0,0E0,0E0,0E0,0E0,0E0,0E0,0E0,0E0,0E0,0E0,0E0,0E0,0E0,0E0,0E0,0E0,0E0,0E0,0E0,0E0,0E0,0E0,0E0,0E0,0E0,0E0,0E0,0E0,0E0,0E0,0E0,0E0,0E0,0E0,0E0],"parents":[2147483647,0,0,1,1,2,2,3,3,4,4,5,5,6,6,7,7,8,8,9,9,10,10,11,11,12,12,13,13,14,14,15,15,16,16,17,17,18,18,19,19,20,20,21,21,22,22,23,23,24,24,25,25,26,26,27,27,28,28,29,29,30,30,31,31,32,32,33,33,34,34,35,35,36,36,37,37,38,38,39,39,40,40,41,41,42,42,43,43,44,44,45,45,46,46,47,47,48,48,49,49,50,50,51,51,52,52,54,54,55,55,56,56,57,57,58,58,59,59,60,60,61,61,62,62],"right_children":[2,4,6,8,10,12,14,16,18,20,22,24,26,28,30,32,34,36,38,40,42,44,46,48,50,52,54,56,58,60,62,64,66,68,70,72,74,76,78,80,82,84,86,88,90,92,94,96,98,100,102,104,106,-1,108,110,112,114,116,118,120,122,124,-1,-1,-1,-1,-1,-1,-1,-1,-1,-1,-1,-1,-1,-1,-1,-1,-1,-1,-1,-1,-1,-1,-1,-1,-1,-1,-1,-1,-1,-1,-1,-1,-1,-1,-1,-1,-1,-1,-1,-1,-1,-1,-1,-1,-1,-1,-1,-1,-1,-1,-1,-1,-1,-1,-1,-1,-1,-1,-1,-1,-1,-1],"split_conditions":[-4.3388373E-1,-5.6806475E-1,-3.546049E-1,2E0,1E0,1E0,1E0,2.4E1,1E0,8.85456E-1,-8.85456E-1,-9.9270886E-1,4.9E1,7.818315E-1,6.6312265E-1,2.2E1,3.546049E-1,1E0,-8.2298386E-1,1E0,4.3E1,-9.9270886E-1,-7.485108E-1,1.5E1,3E0,1.6E1,2E0,1E0,1E0,4E1,2E0,2.1E1,-9.7094184E-1,2.5E1,4.6E1,-7.818315E-1,-9.9270886E-1,3.546049E-1,1E0,2E1,4E1,3.6E1,1E0,1E0,2.6E1,2E0,-6.6312265E-1,1E0,1E0,9.749279E-1,7E0,1E1,1E0,4.6191135E-1,7.818315E-1,9.350162E-1,1E0,1.7E1,-9.7094184E-1,2E0,1.6E1,9.350162E-1,2.1E1,5.928113E-2,6.648786E-1,1.08651355E-1,-3.614373E-1,6.115877E-1,1.6725048E-1,-3.883555E-2,3.2640696E-1,-7.059126E-2,3.3857286E-1,8.3707154E-1,3.281032E-1,1.1956339E-1,4.4707403E-1,2.906972E-1,-1.0273335E-1,2.8331572E-1,9.406502E-2,7.508294E-2,-1.3626894E-1,2.3168253E-2,-1.8402329E-1,4.8242146E-1,1.0559599E-2,-4.2125812E-1,2.5094647E-2,1.4553538E-1,2.2002574E-2,3.228648E-1,-1.03352524E-1,1.6799724E-1,-1.9501671E-2,3.466858E-1,-1.407467E-1,4.0003777E-1,1.8932458E-2,1.0383759E-1,4.6144134E-1,-8.322086E-2,5.557521E-2,-3.9170664E-2,8.186274E-2,-2.5931706E-3,-6.739487E-2,-1.6319437E-1,1.9493538E-1,-4.6114555E-1,1.8440818E-2,-3.313225E-2,-1.9479166E-1,1.3493268E-1,2.1636814E-2,1.22047715E-1,-3.6456652E-2,-3.8101416E-2,-8.115533E-2,-3.1752384E-1,-2.7142698E-2,-2.9653275E-1,-3.2273944E-2,-6.819948E-2,-1.1340373E-1],"split_indices":[9,14,14,1,3,3,3,0,3,14,13,14,0,9,14,0,13,2,14,1,0,13,13,0,0,0,6,0,2,8,0,0,14,0,0,9,14,13,6,0,8,0,2,1,0,0,13,0,10,9,0,0,1,0,9,13,14,0,13,2,0,14,0,0,0,0,0,0,0,0,0,0,0,0,0,0,0,0,0,0,0,0,0,0,0,0,0,0,0,0,0,0,0,0,0,0,0,0,0,0,0,0,0,0,0,0,0,0,0,0,0,0,0,0,0,0,0,0,0,0,0,0,0,0,0],"split_type":[0,0,0,0,0,0,0,0,0,0,0,0,0,0,0,0,0,0,0,0,0,0,0,0,0,0,0,0,0,0,0,0,0,0,0,0,0,0,0,0,0,0,0,0,0,0,0,0,0,0,0,0,0,0,0,0,0,0,0,0,0,0,0,0,0,0,0,0,0,0,0,0,0,0,0,0,0,0,0,0,0,0,0,0,0,0,0,0,0,0,0,0,0,0,0,0,0,0,0,0,0,0,0,0,0,0,0,0,0,0,0,0,0,0,0,0,0,0,0,0,0,0,0,0,0],"sum_hessian":[6.57E3,1.89E3,4.68E3,5.4E2,1.35E3,1.71E3,2.97E3,3.6E2,1.8E2,7.26E2,6.24E2,8.58E2,8.52E2,1.49E3,1.48E3,1.77E2,1.83E2,8.1E1,9.9E1,5.29E2,1.97E2,1.17E2,5.07E2,4.9E1,8.09E2,8.42E2,1E1,9E2,5.9E2,8.2E2,6.6E2,1.59E2,1.8E1,1.18E2,6.5E1,2.4E1,5.7E1,6.2E1,3.7E1,1.75E2,3.54E2,1.66E2,3.1E1,1.9E1,9.8E1,7.2E1,4.35E2,1.6E1,3.3E1,5.1E1,7.58E2,2.92E2,5.5E2,4E0,6E0,1.2E1,8.88E2,1.95E2,3.95E2,7.74E2,4.6E1,3.2E1,6.28E2,1.54E2,5E0,3E0,1.5E1,1.1E1,1.07E2,5.8E1,7E0,1.4E1,1E1,4E0,5.3E1,4.7E1,1.5E1,9E0,2.8E1,6.9E1,1.06E2,3.31E2,2.3E1,1.4E2,2.6E1,6E0,2.5E1,6E0,1.3E1,5.2E1,4.6E1,2E0,7E1,1.7E1,4.18E2,2E0,1.4E1,2.4E1,9E0,4.5E1,6E0,6.8E1,6.9E2,1.73E2,1.19E2,1.88E2,3.62E2,4E0,2E0,7E0,5E0,8.63E2,2.5E1,6.8E1,1.27E2,4E1,3.55E2,5.06E2,2.68E2,1.8E1,2.8E1,1.7E1,1.5E1,2.41E2,3.87E2],"tree_param":{"num_deleted":"0","num_feature":"15","num_nodes":"125","size_leaf_vector":"1"}},{"base_weights":[2.7803467E-3,5.691196E-1,-2.2600628E-1,9.112015E-1,1.0348561E-1,1.5832181E-1,-4.472649E-1,1.318105E0,4.7559947E-1,4.8536527E-1,-1.9479626E-1,5.2297574E-1,-2.0908272E-1,-2.0047288E-1,-6.9542134E-1,1.0954872E0,1.8136277E0,1.5191625E0,3.5596156E-1,-3.8748714E-1,9.2158324E-1,-9.257551E-1,-5.349075E-2,-9.151899E-2,6.605359E-1,-2.3433778E-1,1.7453793E0,1.07765935E-1,-3.561007E-1,-5.264051E-1,-9.042972E-1,1.2618973E0,-3.558646E-1,2.9186037E0,5.802972E-1,2.3354788E0,-2.3061776E0,-1.286803E0,4.735573E-1,3.5493004E-1,-1.0870397E0,2.1706767E0,6.3851273E-1,-1.7459238E0,2.417613E-1,2.7779937E-1,-4.212937E-1,1.2797968E0,-3.8392603E-1,7.9861546E-1,-2.522499E-1,-6.5252976E-3,-4.9025172E-1,4.2495844E-1,-2.9267856E-1,1.0093977E0,-1.00227095E-1,-1.500474E0,-2.898403E-1,-8.02663E-1,-3.8579407E-1,-6.1280465E-1,-1.0096306E0,4.7959935E-2,1.7974214E-1,2.1329024E-1,-2.3963301E-1,7.2095436E-1,2.1755555E-1,-5.8030188E-2,2.2699931E-1,1.0139566E-1,3.4495628E-1,1.3817291E-1,-3.4008703E-1,-3.4130564E-1,-5.549298E-2,2.3371938E-1,2.9839331E-2,6.401314E-2,-3.6553204E-1,-2.6111588E-1,-3.8831193E-2,4.0363356E-1,1.0270619E-1,-1.6418083E-2,1.4346237E-1,-3.0327806E-1,-1.1499541E-1,3.5897166E-1,-5.4014225E-2,1.1251155E-1,-2.1809982E-2,-1.00894375E-2,-8.89538E-2,1.9507217E-1,-1.5053818E-1,-3.079695E-1,-1.5981443E-2,-2.0004323E-2,9.6068405E-2,1.7319594E-1,-5.1217824E-2,2.5177514E-2,-4.8057977E-2,2.130525E-3,-7.814988E-2,6.770249E-2,-3.0554494E-1,1.3578014E-1,-1.7429027E-1,-3.853904E-2,3.5812564E-2,-2.9151365E-1,3.8931813E-2,-1.8069219E-3,-5.7100456E-2,-1.0661071E-1,2.7528668E-2,-1.8170223E-2,-9.33408E-2,-1.8730012E-1,-4.0424805E-2,-9.501982E-2,-1.9435942E-1],"categories":[],"categories_nodes":[],"categories_segments":[],"categories_sizes":[],"default_left":[0,0,0,0,0,0,0,0,0,0,0,0,0,0,0,0,0,0,0,0,0,0,0,0,0,0,0,0,0,0,0,0,0,0,0,0,0,0,0,0,0,0,0,0,0,0,0,0,0,0,0,0,0,0,0,0,0,0,0,0,0,0,0,0,0,0,0,0,0,0,0,0,0,0,0,0,0,0,0,0,0,0,0,0,0,0,0,0,0,0,0,0,0,0,0,0,0,0,0,0,0,0,0,0,0,0,0,0,0,0,0,0,0,0,0,0,0,0,0,0,0,0,0,0,0],"id":13,"left_children":[1,3,5,7,9,11,13,15,17,19,21,23,25,27,29,31,33,35,37,39,41,43,45,47,49,51,53,55,57,59,61,63,65,67,69,71,73,75,77,79,81,83,85,87,89,91,93,95,97,99,101,103,105,-1,107,109,111,113,115,117,119,121,123,-1,-1,-1,-1,-1,-1,-1,-1,-1,-1,-1,-1,-1,-1,-1,-1,-1,-1,-1,-1,-1,-1,-1,-1,-1,-1,-1,-1,-1,-1,-1,-1,-1,-1,-1,-1,-1,-1,-1,-1,-1,-1,-1,-1,-1,-1,-1,-1,-1,-1,-1,-1,-1,-1,-1,-1,-1,-1,-1,-1,-1,-1],"loss_changes":[8.5153864E2,3.0111353E2,3.981239E2,1.9257343E2,9.144858E1,2.2934143E2,1.8181366E2,6.011902E1,6.537988E1,1.3438245E2,4.65336E1,7.267171E1,4.2513107E1,7.156245E1,5.180829E1,9.488318E1,2.3407086E2,1.7401117E2,9.2370865E1,6.1670296E1,8.170564E1,7.0324005E1,4.6297985E1,6.3846565E1,8.8679474E1,4.9144035E1,5.7384624E1,9.405527E1,7.4709305E1,3.1581985E1,1.9676575E1,1.4618573E2,2.1331909E2,2.744574E2,1.640852E2,6.275522E1,4.507033E1,4.7902725E1,1.4424283E2,6.867615E1,6.3947655E1,8.759906E1,1.23568924E2,2.9490326E1,8.309007E1,8.428207E1,2.6914778E1,5.5258667E1,7.865188E1,9.892145E1,4.885203E1,5.4855473E1,5.916545E1,0E0,2.0822094E1,9.250419E1,5.346581E1,1.4549948E2,7.166444E1,7.86718E1,6.0853294E1,4.6025215E1,2.5018951E1,0E0,0E0,0E0,0E0,0E0,0E0,0E0,0E0,0E0,0E0,0E0,0E0,0E0,0E0,0E0,0E0,0E0,0E0,0E0,0E0,0E0,0E0,0E0,0E0,0E0,0E0,0E0,0E0,0E0,0E0,0E0,0E0,0E0,0E0,0E0,0E0,0E0,0E0,0E0,0E0,0E0,0E0,0E0,0E0,0E0,0E0,0E0,0E0,0E0,0E0,0E0,0E0,0E0,0E0,0E0,0E0,0E0,0E0,0E0,0E0,0E0,0E0],"parents":[2147483647,0,0,1,1,2,2,3,3,4,4,5,5,6,6,7,7,8,8,9,9,10,10,11,11,12,12,13,13,14,14,15,15,16,16,17,17,18,18,19,19,20,20,21,21,22,22,23,23,24,24,25,25,26,26,27,27,28,28,29,29,30,30,31,31,32,32,33,33,34,34,35,35,36,36,37,37,38,38,39,39,40,40,41,41,42,42,43,43,44,44,45,45,46,46,47,47,48,48,49,49,50,50,51,51,52,52,54,54,55,55,56,56,57,57,58,58,59,59,60,60,61,61,62,62],"right_children":[2,4,6,8,10,12,14,16,18,20,22,24,26,28,30,32,34,36,38,40,42,44,46,48,50,52,54,56,58,60,62,64,66,68,70,72,74,76,78,80,82,84,86,88,90,92,94,96,98,100,102,104,106,-1,108,110,112,114,116,118,120,122,124,-1,-1,-1,-1,-1,-1,-1,-1,-1,-1,-1,-1,-1,-1,-1,-1,-1,-1,-1,-1,-1,-1,-1,-1,-1,-1,-1,-1,-1,-1,-1,-1,-1,-1,-1,-1,-1,-1,-1,-1,-1,-1,-1,-1,-1,-1,-1,-1,-1,-1,-1,-1,-1,-1,-1,-1,-1,-1,-1,-1,-1,-1],"split_conditions":[-4.3388373E-1,5E-1,-3.546049E-1,1E0,-3.546049E-1,1E0,1E0,2E0,-9.7094184E-1,1E0,-1.2053668E-1,1E0,4.9E1,1E0,6.6312265E-1,4.5E1,-4.6472317E-1,3.8E1,-9.350162E-1,-7.818315E-1,-9.7094184E-1,2.9E1,1E0,9E0,8.2298386E-1,2.6E1,2E0,-1.8369701E-16,-2.3931566E-1,1.7E1,-3.546049E-1,1.8E1,1E0,-6.6312265E-1,-1.8369701E-16,-7.818315E-1,1E0,1.1E1,-8.85456E-1,4.9E1,-9.350162E-1,1.5E1,-7.485108E-1,1E0,3.4E1,1E0,3.1E1,5E-1,1.3E1,7E0,3E0,2E1,1E0,4.2495844E-1,2E0,4.4E1,7.818315E-1,6.234898E-1,6.6312265E-1,9.9270886E-1,9.7094184E-1,6E0,4.7E1,4.7959935E-2,1.7974214E-1,2.1329024E-1,-2.3963301E-1,7.2095436E-1,2.1755555E-1,-5.8030188E-2,2.2699931E-1,1.0139566E-1,3.4495628E-1,1.3817291E-1,-3.4008703E-1,-3.4130564E-1,-5.549298E-2,2.3371938E-1,2.9839331E-2,6.401314E-2,-3.6553204E-1,-2.6111588E-1,-3.8831193E-2,4.0363356E-1,1.0270619E-1,-1.6418083E-2,1.4346237E-1,-3.0327806E-1,-1.1499541E-1,3.5897166E-1,-5.4014225E-2,1.1251155E-1,-2.1809982E-2,-1.00894375E-2,-8.89538E-2,1.9507217E-1,-1.5053818E-1,-3.079695E-1,-1.5981443E-2,-2.0004323E-2,9.6068405E-2,1.7319594E-1,-5.1217824E-2,2.5177514E-2,-4.8057977E-2,2.130525E-3,-7.814988E-2,6.770249E-2,-3.0554494E-1,1.3578014E-1,-1.7429027E-1,-3.853904E-2,3.5812564E-2,-2.9151365E-1,3.8931813E-2,-1.8069219E-3,-5.7100456E-2,-1.0661071E-1,2.7528668E-2,-1.8170223E-2,-9.33408E-2,-1.8730012E-1,-4.0424805E-2,-9.501982E-2,-1.9435942E-1],"split_indices":[9,12,14,3,13,3,3,1,14,2,13,6,0,2,14,0,14,0,14,9,13,0,3,0,13,0,6,14,14,0,13,0,1,13,14,9,2,0,14,0,13,0,13,1,0,1,0,11,0,0,0,8,2,0,1,0,9,10,14,13,13,0,0,0,0,0,0,0,0,0,0,0,0,0,0,0,0,0,0,0,0,0,0,0,0,0,0,0,0,0,0,0,0,0,0,0,0,0,0,0,0,0,0,0,0,0,0,0,0,0,0,0,0,0,0,0,0,0,0,0,0,0,0,0,0],"split_type":[0,0,0,0,0,0,0,0,0,0,0,0,0,0,0,0,0,0,0,0,0,0,0,0,0,0,0,0,0,0,0,0,0,0,0,0,0,0,0,0,0,0,0,0,0,0,0,0,0,0,0,0,0,0,0,0,0,0,0,0,0,0,0,0,0,0,0,0,0,0,0,0,0,0,0,0,0,0,0,0,0,0,0,0,0,0,0,0,0,0,0,0,0,0,0,0,0,0,0,0,0,0,0,0,0,0,0,0,0,0,0,0,0,0,0,0,0,0,0,0,0,0,0,0,0],"sum_hessian":[6.57E3,1.89E3,4.68E3,1.089E3,8.01E2,1.71E3,2.97E3,5.62E2,5.27E2,3.51E2,4.5E2,8.58E2,8.52E2,1.49E3,1.48E3,3.9E2,1.72E2,5.3E1,4.74E2,1.17E2,2.34E2,7.2E1,3.78E2,1.57E2,7.01E2,8.42E2,1E1,5E2,9.9E2,8.2E2,6.6E2,3.5E2,4E1,9E1,8.2E1,4.4E1,9E0,3.1E1,4.43E2,5.7E1,6E1,4.2E1,1.92E2,4.2E1,3E1,1.99E2,1.79E2,2.7E1,1.3E2,6.09E2,9.2E1,4.46E2,3.96E2,4E0,6E0,9.3E1,4.07E2,5.3E1,9.37E2,2.75E2,5.45E2,1.77E2,4.83E2,1.43E2,2.07E2,1.8E1,2.2E1,1.2E1,7.8E1,4.9E1,3.3E1,2.1E1,2.3E1,2E0,7E0,7E0,2.4E1,3.7E1,4.06E2,5.4E1,3E0,1.8E1,4.2E1,1.5E1,2.7E1,9.6E1,9.6E1,1.2E1,3E1,5E0,2.5E1,7.3E1,1.26E2,1.07E2,7.2E1,2.2E1,5E0,9E0,1.21E2,8.5E1,5.24E2,1E1,8.2E1,2.89E2,1.57E2,1.44E2,2.52E2,5E0,1E0,8.3E1,1E1,2.51E2,1.56E2,3E1,2.3E1,4.77E2,4.6E2,2.21E2,5.4E1,3.98E2,1.47E2,2.4E1,1.53E2,4.56E2,2.7E1],"tree_param":{"num_deleted":"0","num_feature":"15","num_nodes":"125","size_leaf_vector":"1"}},{"base_weights":[2.544388E-3,5.12911E-1,-2.0363076E-1,8.21384E-1,9.302518E-2,1.7492981E-1,-3.875002E-1,1.1886193E0,4.2824996E-1,9.1261536E-1,-3.1751845E-2,5.235248E-1,-1.7298429E-1,-1.6759147E-1,-6.0968775E-1,3.1377285E0,1.1331998E0,7.1249557E-1,3.6288492E-2,-1.0218812E0,1.2427179E0,2.326906E-1,-3.5132545E-1,1.5391136E0,4.02669E-1,-1.9999743E-1,1.8919109E0,1.1890226E-1,-3.128577E-1,-4.5964405E-1,-8.146498E-1,5.155056E0,-7.474394E-1,8.275878E-1,1.474694E0,3.6474407E-1,1.4252162E0,